svm_type c_svc
kernel_type precomputed
nr_class 37
total_sv 698
rho 0.144919 -0.0817322 -0.0192015 0.059815 0.0757118 -0.00691833 -0.0315042 0.00441834 0.0400855 0.191249 0.206134 0.118961 0.874988 -0.166089 0.0861418 0.12163 0.126626 -0.0603393 0.170727 -0.0814734 0.0406093 0.13888 0.197673 0.0907888 1.54151 0.0732441 0.070738 0.119891 0.108519 0.0390269 0.57051 -0.064686 0.187087 -0.0309743 0.0177887 0.0121493 -0.13038 -0.187874 0.0331124 0.00990738 -0.0776573 -0.209136 -0.0546772 -0.075559 0.117374 0.117579 -0.00239003 0.0301492 -0.0767712 -0.0449819 -0.00340461 0.00504456 0.0284274 0.148234 -0.0485424 0.0517154 -0.0115049 0.175904 0.0715878 0.0209066 -0.0457215 -0.0489455 0.0696208 0.0634774 0.119875 -0.138149 -0.0496916 -0.0419716 -0.0999951 0.0059256 0.0326329 -0.105398 0.0870316 0.0476337 -0.0661824 0.166331 0.261853 -0.0170594 0.112407 0.122109 0.211734 0.378324 0.0941227 0.185625 0.215013 0.107286 0.16862 0.033044 -0.00768073 0.114258 0.131677 0.153573 0.111612 0.119513 0.125543 0.0405915 0.1032 0.16422 -0.0280809 -0.0110069 0.149376 0.105835 0.00830675 0.0123349 0.503126 0.383331 0.235323 -0.112669 0.0581696 0.310074 0.0759389 0.18189 0.0612904 0.342771 0.388009 0.0504173 0.0853321 0.13886 -0.0213231 0.0976716 0.0993769 0.019952 0.0679017 0.0880178 0.215017 0.220471 0.102791 0.0236092 -0.00879051 0.184433 0.265135 -0.031603 0.0234146 0.148395 0.182458 0.0515309 0.0674049 0.109011 -0.167395 -0.494834 0.0856728 0.0388653 -0.0879951 -0.042788 0.102535 0.00707744 0.519675 -0.00307672 0.130839 0.0102851 0.0291958 0.0366996 0.185386 -0.0900907 0.00610263 0.0760722 0.301877 0.0123296 0.0181503 0.0280031 -0.0580198 0.0321668 0.0772428 -0.0967235 0.00917471 -0.0166674 0.0255988 -0.0748356 0.00841123 0.135613 -0.00662943 -0.0715804 0.0698544 0.048456 0.000998134 0.21845 0.384115 0.366004 0.0825758 0.484263 0.342636 0.0270285 0.119118 0.177465 -0.0524348 0.0862121 0.140404 0.139525 0.09481 -0.0133438 0.166558 -0.0376652 0.134469 0.0768919 0.00664738 -0.0455881 0.075232 0.0987105 -0.0745827 0.0533725 -0.107759 0.0740564 0.228484 0.0787504 0.211286 0.14926 0.330607 0.508855 0.147775 0.1511 0.205435 0.151237 0.0687828 0.0850382 0.0299926 0.052287 0.137784 0.224702 0.0756824 0.121864 0.032282 0.0534548 0.14948 0.203765 -0.0165664 0.0123703 0.0599045 0.123975 -0.00616862 0.05509 0.203508 -0.0753361 -0.0484586 0.0514319 0.11617 0.0598217 0.207193 0.0548649 0.0280153 0.109249 0.0829584 0.0803374 0.242594 0.0234382 0.0202268 0.0678879 0.272372 0.118516 0.128997 0.106731 -0.0141818 0.112622 0.0830685 0.0267986 -0.00198093 0.0708815 0.091867 -0.0519387 0.18705 0.225837 -0.145813 0.0236023 0.244722 0.568451 0.581521 0.119222 0.263941 0.223948 0.0608779 0.327586 0.0173931 -0.0991679 0.0506777 0.171955 0.238629 0.203048 0.0583906 0.276434 0.0656005 0.195717 0.076821 -0.119391 -0.0797871 0.00887789 0.13431 -0.0123976 0.0288041 0.119796 0.0571909 0.317418 0.250715 0.504962 0.0290123 0.197266 0.164779 0.135173 0.184876 0.0718948 0.0448484 0.00704879 0.0860769 0.182701 0.101647 0.153286 0.182709 0.0568775 0.21542 0.0763889 -0.0105495 -0.0322381 0.132939 0.0286182 -0.0437883 0.0105659 0.00417757 0.0611267 0.154445 0.0897808 -0.0688341 0.0948366 0.15748 -0.216595 0.0677814 -0.0364107 -0.141557 -0.252968 -0.0334859 -0.112132 -0.0632594 -0.0801963 0.045235 -0.144678 0.0431436 0.0470483 -0.171616 -0.140273 -0.0316836 -0.0730406 -0.152811 -0.0648741 -0.0704191 -0.038296 0.435978 -0.0792596 -0.12901 -0.0420926 -0.103464 -0.234227 0.0856107 -0.216273 -0.221148 -0.0757245 0.293836 -0.0491452 -0.224026 -0.123545 -0.0916876 -0.180987 -0.122329 -0.0708537 -0.250281 -0.0938596 -0.0580488 -0.300343 -0.0313502 -0.0244045 0.491119 0.0862086 0.0225681 -0.00167642 0.0518376 -0.00265043 0.0549781 -0.0882931 -0.102947 0.0708553 0.142586 0.234648 -0.00578942 -0.0264418 -0.00623038 -0.204444 -0.349117 -0.0960351 -0.125424 -0.000830669 -0.176861 -0.0684759 0.0167322 -0.131762 -0.569328 -0.563451 -0.217672 -0.728791 -0.210006 -0.136281 -0.324912 -0.282899 -0.896078 -0.147672 -0.334063 -0.644327 -0.401344 -0.460613 -0.298582 -0.336023 -0.148792 -0.495712 -0.408869 -0.329871 -0.376301 -0.25749 -0.166184 -0.0286584 -0.032231 -0.0707487 -0.0952182 0.0887762 -0.0592873 -0.0519973 0.0482547 0.206369 0.0682172 -0.0146321 -0.115592 -0.0111693 -0.0495164 0.0213298 -0.0717163 -0.15886 -0.0100624 -0.0123293 -0.126156 -0.104039 -0.0360362 -0.013462 0.0812051 -0.135963 0.0226768 -0.0543122 -0.108948 0.0676861 0.0736197 0.0170717 -0.0449346 -0.276982 -0.0693598 -0.18588 -0.322566 -0.0523838 -0.066767 -0.0466258 -0.24556 -0.0958203 -0.0579486 -0.0958145 -0.155321 -0.142398 0.110782 -0.050218 -0.0434272 0.0377037 0.0394384 0.086158 -0.05833 -0.396585 -0.0725372 -0.185634 -0.286451 -0.0139572 -0.080659 0.00369582 -0.183083 -0.143572 -0.0773072 -0.110154 0.133489 0.0663218 -0.0664486 -0.0278401 0.108273 0.0818611 0.0105651 0.0617454 0.0349486 0.017657 -0.0181533 0.0721393 -0.0834153 -0.0352228 0.0360808 0.114715 -0.0772377 -0.0238852 -0.0503208 0.0234663 -0.0507312 -0.0993566 0.0286041 0.0801361 0.0515891 0.0515618 0.0842496 -0.0816197 -0.0850474 -0.0650937 -0.0573776 0.0885366 0.0176704 -0.381581 -0.153203 -0.0397966 -0.128594 -0.229955 -0.17231 -0.151868 -0.0721596 -0.200528 -0.172801 -0.0810241 -0.0554379 0.0644778 0.137656 -0.425808 -0.126009 -0.523981 -0.0507164 -0.404441 -0.331421 -0.0905229 0.0178187 0.0633222 0.259248 0.0914828 0.129558 0.0191531 0.0174475 0.0713844 0.104325 -0.0672379 -0.0334752 0.0896587 0.0961462 -0.0620203 0.0492857 0.019604 0.0223076 0.20353 0.135112 0.0297684 0.061165 0.0344214 0.115409 0.140067 -0.0748493 -0.0486983 0.101631 -0.0263104 -0.1858 0.0717124 0.0345145 0.204467 0.0577941 -0.00146624 -0.12608 -0.0364507 -0.0679612 -0.0108819 0.0523681 -0.0992777 0.036904 0.0375093 -0.0634805 -0.0493422 -0.0496016 -0.0155041 -0.337025 -0.0284784 -0.190406 0.064494 0.0203756 -0.256057 -0.0880136 -0.343546 -0.196226 -0.654512 -0.419884 -0.0865499 0.000255212 -0.145633 -0.0935598 -0.0874393 0.09915 -0.271554 -0.178576 -0.14028 -0.11333 -0.347399 -0.203164 -0.0954933 -0.0393161 0.0282418 0.0230141 0.0171764 -0.0841111 -0.075689 -0.0596357 0.00503339 -0.126576 -0.0357179 -0.0751308 -0.00994108 -0.0851567 -0.0638544 -0.0335078 -0.00838135 0.0845214 -0.284223 -0.10548 -0.112824 -0.00911323 0.159765 0.0536792 -0.0605883 -0.0645926 -0.0563342 0.0734177 -0.0820789 -0.0312998 -0.0211997 -0.116495 -0.188775 -0.0861422 -0.0128615 -0.0624545 -0.236744 -0.163757 -0.092828 -0.098799 -0.104981 -0.107468 -0.0181063 -0.226959 -0.0812337 -0.150624 -0.0902723 -0.0481106 0.126865 0.0454231 0.209995 0.0793394 0.0925573 0.0573952 0.0200122 0.095434 0.0454602 -0.026191 -0.151142 -0.0973516 -0.0707431 -0.0958067 0.00709366 -0.0783904 0.0458389 0.0643325 0.0101038
label 48 49 50 51 52 53 54 55 56 57 60 65 66 67 68 69 70 71 72 73 74 75 76 77 78 79 80 81 82 83 84 85 86 87 88 89 90
nr_sv 32 25 36 18 21 22 24 21 22 21 25 44 17 29 17 30 21 6 20 25 3 9 27 24 15 18 18 4 25 24 12 11 5 5 5 7 10
SV
0 0 0 0 0 0 0 0 0 0 0 0 0 0 0 0 0 0.009797842132941563 0 0 0 0 0 0 0 0 0 0 0 0 0 0 0 0 0 0 0:1 
0 0 0 0 0 0 0 0 0 0 0 0 0 0 0 0 0 0.102167714678022 0 0 0 0 0 0 0 0 0 0 0 0 0 0 0 0 0 0 0:2 
0 0 0 0 0 0 0 0 0 0 0 0 0 0 0 0 0 0 0.243687053175945 0 0 0 0.09148627710237636 0 0 0 0 0 0 0.04512104369929026 0 0 0 0 0 0 0:3 
0 0 0 0 0 0 0 0 0 0 0 0 0 0 0 0 0 0 0 0 0 0 0 0 0 0 0 0 0 0 0 0 0.1898518973228153 0 0 0 0:17 
0 0 0 0 0 0 0 0 0 0 0 0 0 0.2177132188911652 0 0 0 0 0 0 0 0 0 0 0 0 0 0 0 0 0 0 0 0 0 0 0:19 
0.1915241427960428 0 0.1190774124486491 0.1275664348302481 0.1773832574440463 0 0.210773916982161 0 0.03388892233101996 0 0.06294300318066978 0.0504724469618249 0.5008277010248197 1.055087506464335 0 0.0823449941370243 0.1508902227885393 0 0 0 0.02513761777512266 0.1950928118132375 0 0 2.273531388888756 0 0 0 0.02608422082426526 0.3415780535693744 0 0.09550616332077815 0 0.1067140887596223 0.1430027382575567 0.1045270889743438 0:31 
0 0 0 0 0 0 0 0 0 0 0 0 0 0 0 0 0.04015642695004844 0 0 0 0 0 0 0 0.3660918195702752 0 0.1983329590494543 0 0 0 0 0 0 0 0 0 0:32 
0 0 0 0 0 0 0 0.07299940873167751 0 0 0 0.03636144981785199 0.4630513085681415 0 0.1146642297011183 0 0 0 0.1398190540922494 0 0 0 0 0 0 0 0 0 0 0 0 0 0 0 0 0.09296829917925925 0:33 
0.1828145128845876 0.2076619051141805 0.1143165569655459 0 0.1031221591778772 0.1352396470170485 0 0.2528236878170379 0 0.08846698981855491 0 0.0928203918913429 0 0 0.05873868404934557 0.02232841919058848 0.04618324872437424 0 0 0.1240287992712204 0 0 0 0 0.1691306911334479 0 0 0 0.1567708640527541 0 0 0 0 0 0 0 0:34 
0 0 0 0 0 0 0 0 0 0 0 0 0 0 0 0 0 0 0 0 0 0 0 0 0 0 0 0 0 0 0.2755893052592564 0 0 0 0 0 0:37 
0 0 0 0 0 0.03298789860361075 0 0 0 0 0.0583538265539867 0 0 0.8589528637839977 0 0 0 0 0 0 0 0 0 0 0.7684523375545641 0 0.2173891628953931 0 0 0 0 0 0 0 0 0 0:38 
0 0 0 0 0 0 0 0 0 0 0 0 0 0 0 0 0 0 0 0 0 0 0 0 0 0 0 0 0 0 1.188510303716405 0 0 0 0 0 0:39 
0 0 0 0 0 0 0 0 0 0 0 0 0 0 0 0 0 0 0 0 0 0 0 0 1.607035901143999 0 0.1130085418049716 0 0 0 0 0 0 0 0 0 0:44 
0 0 0 0 0 0 0 0 0 0 0.1000384444428893 0.03874652732774024 0 0.4522536868402233 0 0 0 0 0 0.03106102237800253 0 0 0.1056725251869667 0.2219631479185929 0 0 0.01656258672762174 0.04392714082044968 0 0 0 0 0 0 0.005060637727883874 0 0:45 
0 0 0 0 0 0 0 0 0 0 0 0 0 0 0 0 0 0 0 0 0 0 0 0 1.304515474290068 0 0 0 0 0 0 0 0 0 0 0 0:49 
0.1529730913476862 0.06147969974683158 0.2007206502387105 0.2099314659744161 0.02876266446507667 0.143983221809425 0.09666450872585892 0 0.2258139519656909 0.1639178530072106 0.263573470273738 0.127434437977144 0 0 0 0 0.05136514375812782 0 0 0.08934148138971178 0.01391271105277641 0 0.2278800701879909 0.2489790423997654 0.1395883312182961 0 0 0 0.04930145300490279 0 0 0.08387954859506354 0.004531961623451909 0.1352002779696426 0.1168056968768631 0.09296734961008456 0:51 
0 0.04945473404182819 0 0 0 0 0 0 0 0 0 0 0.169098675938526 0 0 0 0.04583066841288042 0 0 0 0 0 0 0 0 0.01290536035496836 0 0.04010233223255307 0 0 0 0 0 0 0 0 0:52 
0 0 0 0 0 0 0 0 0 0 0 0 0 0 0 0 0 0 0 0.03388368808954022 0 0 0 0 0 0 0 0 0 0 0 0 0 0 0 0 0:53 
0 0.1381376401532141 0.0127984426666483 0.2595816564923158 0.1693564182921765 0.2745730532656743 0.009032790679056929 0.5147661464720835 0.2229914713310808 0.1343180775345726 0.5557662838919124 0.3360308100382882 0.4547860052110847 0 0.3502635531759937 0.1855512420973298 0.362464581953118 0.09142318937785776 0 0 0.2576268107432563 0.1060939776935939 0.04095843339466446 0 0.7667135830821354 0.3444723961241045 0.3091076812387092 0.3965579536651704 0.221700507790163 0 0 0.05180883610284142 0.1634824975129897 0.1480133383130893 0.0340677934142179 0.08620345644276547 0:54 
0 0 0 0 0 0 0 0.002127740418628908 0 0 0 0 0 0 0 0 0 0 0 0 0 0 0 0 0 0 0 0 0 0 0 0 0 0 0 0 0:66 
0 0 0 0 0 0 0 0 0 0 0 0 0 0 0 0 0 0 0 0 0 0 0 0 1.228717543452498 0 0 0 0 0 0 0 0 0 0 0 0:69 
0 0 0 0 0 0 0 0 0 0 0 0 0 0 0 0 0 0 0 0 0 0 0.1854894074144165 0.07351503799207086 0 0 0 0.04567389100615703 0 0.1114655304303094 0 0 0.08603656513851057 0 0.0698195156013927 0 0:72 
0 0 0 0 0 0 0 0 0 0 0.05683194011838687 0 0 0 0 0 0 0.1242445997091844 0 0 0.0009320692629952024 0 0.04845995856919065 0.04716112859759648 0 0.09813934620090423 0 0 0 0 0 0.1854659565910677 0.01266082654067453 0 0.004473931513546444 0 0:74 
0 0 0 0 0 0 0 0 0 0 0 0 0 0 0 0 0 0 0 0 0 0 0 0 2.147392323899847 0 0.0441110919842518 0 0 0 0 0 0 0 0 0 0:81 
0 0 0 0 0 0 0 0 0 0 0 0 0 0 0 0 0 0 0 0.08096333155079692 0 0 0 0 0 0 0 0 0 0 0 0 0 0 0 0 0:83 
0 0 0 0 0 0 0 0 0 0 0 0 0 0 0 0 0 0.0649133932976195 0 0 0 0 0 0 0 0 0 0 0 0 0.5435325712825599 0.3186269902226685 0.05750045026524625 0 0.01544586277446876 0 0:85 
0.03713048326935883 0 0 0 0 0 0.08586661832944291 0 0 0 0 0 0 0.09555595590330988 0 0.0682389193412498 0 0.0228453638338505 0.1551748267926769 0 0 0 0.09281360434116198 0.01914578202257592 0 0 0 0.01903964524833936 0 0 0 0 0 0 0 0 0:90 
0 0 0 0 0 0 0 0 0 0 0 0 0.05446091050501198 0 0 0 0 0 0.1708611230700422 0 0 0.2865078554266842 0 0 0 0 0 0 0 0 0.4169204715449206 0 0 0 0 0 0:91 
0 0 0.004140392047824007 0.02860043600928376 0 0 0 0 0 0 0 0 0 0.02075294841301795 0 0 0 0 0.1712194434962051 0.1484444264074414 0 0 0 0.06122242039923156 0 0 0 0 0 0 0.5782728347144951 0 0.1751893325059294 0.03967698577063902 0 0 0:92 
0 0 0 0 0 0 0 0 0 0 0 0 0 0 0 0 0 0 0 0 0 0 0 0 1.782543359501234 0 0 0 0 0 0 0 0 0 0 0 0:98 
0 0 0 0 0 0 0 0 0 0 0 0 0 0 0 0 0 0 0 0.007648676803422695 0 0 0 0 0 0 0.0889549599273405 0 0 0 0 0 0 0 0 0 0:100 
0 0 0 0 0 0 0 0 0 0 0.3554640669486216 0 0 0 0 0 0 0.07420977156614397 0.04337048335986658 0 0.04728099173544886 0.2057611132629935 0.2299720901227656 0 0 0 0 0 0 0 0 0 0 0 0 0 0:102 
-0 0 0 0 0 0 0 0 0 0 0 0 0 0 0 0 0 0 0 0 0 0 0 0 0 0 0 0 0 0.2096533818129585 0 0 0 0 0 0 0:112 
-0 0 0 0 0 0 0 0 0 0 0 0 0 0 0 0 0 0 0.02538054708147288 0 0 0 0 0 0 0 0 0 0 0.2667792375657782 0 0 0 0 0 0 0:120 
-0 0 0 0 0 0 0 0 0 0 0 0 0 0 0 0 0 0 0 0 0 0 0 0.05850454936515741 0 0 0.0150487022201133 0 0 0 0 0 0 0 0 0 0:125 
-0 0 0 0.07845716789121283 0 0.0585213738217137 0 0 0 0.0343521037785532 0 0 0.03814464612068724 0 0 0 0.01443709679657563 0 0 0 0.02481849864287993 0 0 0 0 0 0 0 0 0.04752986667975732 0 0 0 0 0 0 0:131 
-0 0 0 0 0 0 0 0 0 0 0 0 0 0.01245512671290135 0 0 0 0 0 0.02294291061536239 0 0 0 0.0078658098078514 0 0 0 0 0 0 0.08762631678193199 0.02414730589870135 0 0 0 0 0:132 
-0 0 0 0 0 0 0 0 0 0 0 0 0 0 0 0 0 0 0.324922399219877 0 0 0.08402252307184954 0 0.1221239242146202 0 0 0 0 0 0.1519446935919574 0 0.105247429854061 0 0.1414486334194527 0.3350623065537951 0 0:133 
-0.201448559459224 0.05647184871416526 0 0 0.1154119329626875 0 0.206376084759629 0.1290076953570358 0.07550475550785143 0.04740924529817914 0.03500388247044285 0.1916743545129235 0.1341257765686855 0.1666841015872314 0.1496731834196045 0.1621370982694799 0.05297227800158643 0.1159280593572458 0 0 0.01558410880643619 0.04259163641327691 0.1469780715509532 0 0.1438182188709437 0.1405956166963037 0.06605838026641875 0.1830915036131758 0.1050240404945808 0 0 0 0.13370538227889 0 0 0.006542923486415515 0:135 
-0 0 0 0 0 0 0 0 0 0 0 0 0 0 0 0 0 0 0 0 0 0 0 0 0 0 0 0 0 0 0 0 0 0 0 0.02402081544394293 0:137 
-0 0 0 0.03522955047509865 0 0 0 0 0 0 0 0 0 0 0 0 0 0 0 0 0 0 0 0 0 0 0 0 0 0 0 0 0 0 0 0 0:139 
-0 0 0 0 0 0 0 0 0 0 0 0 0 0 0 0 0 0 0 0 0 0 0 0 0 0 0 0 0 0 0 0 0 0 0 0.02019217969134554 0:140 
-0 0 0 0 0 0 0 0 0 0 0 0 0 0 0 0 0 0 0.01515185175394848 0 0 0 0 0 0 0 0 0 0 0 0 0 0 0 0 0 0:143 
-0 0.05899962488203453 0.004746117917214485 0 0 0 0.2581605183097665 0 0 0.1049246250772509 0 0 0.0623518060423106 0 0 0 0.003628917066882309 0 0 0 0.1604476025037355 0 0.02717095340369182 0 0 0 0 0 0 0 0 0 0 0.05252344170448388 0 0.3031168399006413 0:144 
-0.1944062478248192 0.1814958434642946 0.2291459847589075 0.2686773432669157 0.205633685107515 0.2818239911028977 0 0.2417310160384798 0.3832404033479591 0.2568224428754088 0.3596477024135211 0.2028661692405191 0.1792805454673425 0.2303815641640635 0.07358321583271471 0.106669339998773 0.2403509541209739 0.07561776078433965 0.2458071043598071 0.2157536173617425 0.1345239729099043 0.1067577514443385 0.3348534676289025 0.3930549769372558 0.3114306864284543 0.1837126389428321 0.281907883955892 0.3283149557827355 0.2962853136891689 0 0.1120260137548149 0.2451314966107542 0.2756401498854099 0.2426074671527374 0.2495817867135082 0.01883097014024421 0:145 
-0 0 0 0 0 0 0 0 0 0 0 0 0 0 0 0 0 0 0 0 0 0 0 0 0 0 0 0 0 0 0 0 0 0 0.006219880349408896 0 0:146 
-0 0 0 0 0 0 0.1351789065935229 0 0 0 0 0 0 0 0 0 0 0 0 0 0 0 0 0 0 0 0 0 0 0 0 0 0 0 0 0.003014489829682278 0:156 
-0 0.08326618966449224 0.09343860170352321 0 0 0.01042573950029715 0.04021233973192877 0 0 0 0 0 0.07584497137712448 0 0.05587183289294795 0.04826061945570529 0.06126369656573386 0 0 0 0 0.03257197054121107 0 0 0 0 0 0 0 0.004065606206802554 0 0 0 0 0 0.003277652268894845 0:167 
-0 0 0 0 0 0 0 0 0 0 0.03681614430721813 0 0 0 0 0 0 0.1206949552810427 0 0.1090883416082299 0 0 0 0.07789361993923885 0 0 0 0 0 0 0.0806648723676985 0.003897802362021831 0.01359699809062172 0 0 0 0:169 
-0 0 0 0 0 0 0 0 0 0 0.09951785313931204 0 0 0 0 0 0 0 0 0.06396184000661603 0 0 0 0 0 0 0 0 0 0 0 0 0 0 0 0 0:170 
-0 0 0 0 0 0 0 0 0 0 0 0 0 0 0 0 0 0 0.1671575190930637 0 0 0 0 0 0 0 0 0 0 0.330428724211885 0.009559493626563614 0.02851204276429005 0 0 0 0 0:172 
-0 0 0 0 0 0 0 0 0 0 0 0 0 0 0 0 0 0 0 0 0 0 0 0 0 0 0 0 0 0 0 0 0 0 0 0.04407814821472232 0:173 
-0 0 0.1026376821880211 0.1012710447915416 0.1108946710037828 0 0 0.001363373738880277 0 0 0 0.03873880194285849 0 0 0.06203845587044619 0.0413855937383111 0 0.06848319831571602 0.03195345442603741 0 0 0 0.01732811191703797 0 0 0 0 0.01681217814442632 0 0 0 0 0 0 0 0 0:174 
-0.05654866482250458 0 0 0 0 0 0 0 0.0171340673571018 0 0 0 0 0 0 0 0 0 0 0 0 0 0 0 0.006900035769425483 0 0 0 0 0 0 0 0 0 0 0 0:175 
-0 0.05648300086196151 0.04124430910460596 0 0 0.07177285167912903 0 0.02824269674824677 0 0 0 0 0 0 0 0 0.003953098475234913 0.0004476986124374149 0 0 0 0 0.02859096639630948 0 0 0 0 0 0 0 0.005761107957604209 0 0.004483224106269152 0 0 0.03824272895524114 0:177 
-0.1120387581911276 0 0 0 0 0 0 0 0 0 0 0 0 0 0 0 0 0 0 0 0 0 0 0 0.04406350453596049 0 0 0 0 0 0 0 0 0 0 0 0:178 
-0 0 0 0 0 0 0 0 0 0 0 0 0 0 0 0 0 0 0 0 0 0 0 0 0 0 0.0669992736158795 0 0 0 0 0 0 0 0 0 0:180 
-0 -0 0 0 0 0 0 0 0 0 0 0 0 0 0 0 0 0 0 0 0 0 0 0 0 0 0 0 0 0 0 0.008275117290897924 0 0 0 0 0:184 
-0 -0 0 0 0 0 0 0 0 0 0 0 0 0 0 0 0 0.01871373195033399 0 0 0 0 0 0 0 0.1196199977551653 0 0.1011707520219757 0 0 0 0 0 0 0 0 0:185 
-0 -0 0 0 0 0 0 0 0 0 0 0 0 0 0 0.2562889650752034 0 0.119881631345908 0 0 0 0 0 0 0 0.1210580161309641 0 0.0114543436460925 0 0 0 0 0.04241486309674444 0 0 0 0:186 
-0 -0 0 0 0 0 0.1371980884854485 0 0 0 0 0 0 0 0 0 0 0 0 0 0 0 0 0 0 0 0 0 0 0 0 0 0 0 0.01287954730191854 0.5637149596245287 0:187 
-0 -0 0 0 0 0 0 0 0 0 0 0 0 0 0 0 0 0 0 0 0 0 0 0 0 0 0 0 0 0 0 0 0 0 0 0.04578522807532186 0:190 
-0 -0 0 0 0 0 0.05305926678450852 0 0 0 0 0 0 0 0 0 0 0 0 0 0 0 0 0 0 0 0 0 0 0 0 0 0 0 0 0.007786818143046312 0:194 
-0 -0 0 0 0 0 0 0 0 0 0 0 0 0 0 0 0 0 0 0 0 0 0 0 0 0 0 0 0 0 0 0 0 0 0 0.173076032110659 0:198 
-0 -0 0 0 0 0 0 0 0 0 0 0 0 0 0 0 0.06456357262849341 0 0 0 0 0 0 0 0 0 0 0 0 0 0 0 0 0 0 0 0:205 
-0 -0.01239651079798614 0.04809736407692552 0 0.2512372729209135 0 0 0 0.148973021460411 0.1336469814183507 0 0.3039586445375783 0 0 0.1728749309559744 0.02552166587985276 0 0 0 0.1211893073512984 0 0 0 0 0 0.01228897233891469 0 0.2163209439334622 0.07503652292919531 0 0 0 0 0 0 0 0:206 
-0 -0.008630624749094347 0 0 0 0 0 0 0 0 0 0 0 0 0 0 0 0 0 0 0 0 0 0 0 0 0 0 0 0 0 0 0 0 0 0 0:207 
-0 -0 0 0.1538259389579586 0 0.1621259910437027 0 0 0 0 0.305991722651379 0 0 0 0 0 0 0 0 0 0 0 0 0 0.007561790220816913 0 0.0230576458549835 0 0 0 0 0 0 0 0 0 0:208 
-0 -0 0 0 0 0.007834450673229904 0 0 0 0 0 0 0 0 0 0 0 0 0 0 0 0 0 0 0 0 0 0 0 0 0 0 0 0 0 0 0:209 
-0 -0 0 0 0 0 0 0 0 0.01456557828174485 0 0 0 0 0 0 0 0 0 0 0 0 0 0 0 0 0 0 0 0 0 0 0 0 0 0 0:215 
-0 -0.01909851522501293 0 0.005048065971568196 0 0 0 0 0 0 0 0 0 0 0 0 0 0 0 0 0 0 0 0 0 0 0.007854135044211877 0 0 0 0 0 0 0 0 0 0:217 
-0 -0 0 0 0 0 0.08061974402482947 0 0 0 0 0 0 0.04447882417673898 0 0 0 0 0 0 0 0 0.05623989715134615 0 0.03640344001596672 0 0 0 0 0.01598484928336823 0 0.03344947346589316 0 0 0.04087331598417884 0.1749846949100161 0:218 
-0.1770616557082203 -0.209751608187818 0 0 0 0 0 0 0 0 0 0 0.3251922603053974 0.02133199961782979 0 0 0.1994674122489117 0 0.09792139380355917 0.01432993496227373 0 0.2013541209540038 0 0.1079736320209282 0.08501603624654419 0 0.07413088428973429 0 0 0.07696269321845144 0.09631965108895928 0 0.08669321728353251 0 0 0 0:219 
-0.02406316502937133 -0.03696862670956656 0 0.1358261550679497 0 0.1405664360369269 0 0.1414718483231591 0.1670021240428893 0 0.1881819948794118 0 0 0.0508443480917043 0 0 0 0 0.153984104527946 0.0006794640662345566 0.1636097464802081 0 0.3355290045311998 0.1333283080422827 0.0449290334749092 0 0 0.009951480513621103 0 0.09485227073108068 0 0.09711737093330312 0.01723365327360695 0.2831239926084509 0.1612915049421148 0 0:220 
-0 -0 0 0.01294541133632373 0 0 0 0 0 0 0 0 0 0 0 0 0 0 0.0924768238981179 0 0 0 0 0 0 0 0 0.05857414897094722 0 0 0 0 0 0 0 0 0:221 
-0 -0 0 0.04764747627168569 0 0 0 0 0.2050314945016334 0 0 0 0 0 0 0.0836980064135936 0.0729400825779737 0 0 0 0 0 0 0 0 0.2113060019152525 0 0 0 0 0 0 0 0 0 0 0:222 
-0 -0 0 0 0 0 0 0 0 0 0 0 0 0 0 0 0 0 0 0 0 0.05596799244585465 0 0 0 0 0 0 0 0 0 0 0 0 0 0 0:223 
-0 -0 0 0 0 0 0.1979946820021304 0 0 0 0 0 0 0 0 0 0 0 0 0 0 0 0 0 0 0 0 0 0 0 0 0 0 0 0 0.4382520910016906 0:229 
-0.2351504004446054 -0 0 0 0 0 0 0.1784575476339541 0 0 0 0.02620150487535405 0.08438948233599602 0.2279253002599014 0 0 0 0 0 0 0 0.0169555690005775 0 0 0.2081510447740919 0 0.05755688490478144 0 0 0 0 0 0.05011018739113061 0 0 0 0:234 
-0 -0.04265794618717688 0.4554359760767266 0 0.2398422098241918 0.2945456039645691 0 0.07599177066087058 0.1462036125356042 0.08105333511354819 0 0.3385608759731366 0 0 0.4696464885496448 0.1637043649497688 0.1077981591926485 0.09010028568854833 0 0 0 0 0 0.004850992056902386 0 0.2211267940244206 0.1386519250241242 0.07457620109638433 0.2740676836002665 0 0 0 0 0.02480946546491161 0 0 0:235 
-0 -0 0 0.06057351968052924 0 0 0.02753993398103168 0 0 0 0 0 0 0 0 0 0 0 0 0 0 0 0 0 0 0 0 0 0 0 0 0 0 0 0 0 0:236 
-0 -0 0 0 0 0 0 0 0 0 0 0 0 0 0 0 0 0 0 0 0 0 0 0 0 0 0 0 0 0 0 0 0 0 0 0.7435171859230099 0:238 
-0 -0 0.04906898887573508 0 0.1285819902690705 0 0 0.1926229276400614 0.148483731057156 0.1636615464828222 0 0.2776678864160033 0 0 0.259280869789726 0.09533431308742597 0.05172323791178557 0.1164984554469076 0 0 0 0 0 0 0 0.06211539865751715 0.006322284358591543 0.07282222686325818 0.2428050266710601 0 0 0 0 0 0 0 0:242 
-0 -0 0 0 0 0 0 0 0 0 0 0 0 0 0 0 0 0 0 0.08266894607668182 0 0 0 0 0 0 0 0 0 0 0 0.03769534438194311 0 0 0 0.1605493734048734 0:244 
-0 -0 0 0 0 0 0 0 0 0 0 0 0 0 0 0 0 0 0 0 0 0 0.02841632857771417 0 0 0 0 0 0 0 0 0 0 0 0 0 0:247 
-0 -0 0 0 0 0 0 0 0 0 0 0 0 0 0 0 0 0.05147405446469772 0 0 0 0 0 0 0 0 0 0 0 0 0.06035048220625192 0 0.08537589932883402 0 0 0 0:249 
-0.01475156999241824 -0.1072126757302932 0 0 0 0 0.653458183288529 0 0 0 0 0 0.09202792817227835 0.009084037527891714 0.004757669630375356 0.01101762365636822 0.07197299092179435 0 0 0 0 0 0.07803054427657172 0.01446081307934997 0.02596665733223683 0 0 0 0 0.0799560474126251 0 0 0 0.0227793826496243 0.04473083668839743 0 0:250 
-0 -0 0 0 0 0 0 0 0 0 0 0 0 0 0.1017752934855269 0 0 0 0 0 0 0 0 0 0 0 0 0 0 0 0 0 0 0 0 0 0:251 
-0.005707187881439095 -0 0.1679915642767097 0 0 0.01393839965160897 0 0 0 0.0990172108694992 0 0 0 0.01220887505043704 0 0 0 0 0.09140865259546346 0 0.1913529931275425 0.07259168860802476 0.1984140378692252 0.0751537647409114 0 0 0 0 0.0171869628339283 0.005967125277080172 0.05905097905105749 0.1637474881547933 0 0.1549939138673335 0.1238140077880584 0 0:252 
-0 -0 0 0.1763634384559469 0 0.09437057574035647 0 0.1283888869378965 0 0.02288363944864768 0.2746434029948592 0 0 0 0 0 0 0.1748113164653115 0.1061463289995617 0.1684103426175357 0 0 0 0.08618545474231425 0 0 0.08876008307906175 0 0 0.02674027407124058 0.05302383534615385 0 0 0 0 0 0:253 
-0 -0 0 0 0 0 0 0 0 0 0 0 0 0 0 0 0 0 0 0 0 0 0 0 0 0 0 0.0661948713225239 0 0 0 0 0.1587316801647507 0.001681736490156774 0 0 0:254 
-0 -0 0 0 0 0 0 0 0 0 0 0.01900831926253379 0 0 0 0 0 0 0 0 0 0 0 0 0 0.02752030068125515 0 0 0 0 0 0 0 0 0 0 0:262 
-0 -0 0 0 0 0 0 0.5044788832434791 0 0 0 0 0 0 0 0 0 0 0 0 0 0 0 0 0 0 0 0 0 0 0 0 0 0 0 0 0:263 
-0.03542550162498938 -0 -0 0 0.2065123793490813 0 0 0 0 0 0 0.1112800562324376 0 0 0 0 0 0.02865519008428223 0 0 0 0 0 0 0 0.01872473723169138 0 0 0 0 0 0 0 0 0 0 0:275 
-0 -0 -0 0 0.06375819888028916 0 0 0 0 0 0.03438071814945496 0.259944796466558 0 0.06294156952679453 0 0.07497130685803417 0 0.1117745426523874 0.1438867013739059 0.07574291172864192 0 0.1518443155827204 0 0.01057733638712604 0 0.09136777558211409 0 0.1084911104110138 0.1231196517751565 0.06497584741651496 0.01957552235091147 0.005331802547659597 0 0.00129037229563854 0.03719454066559701 0 0:278 
-0 -0 -0 0 0 0 0 0 0 0.1813456231059702 0 0 0.000503450437072349 0 0.03890680560792067 0 0.2238671469864434 0 0 0 0 0 0 0 0 0 0 0 0 0 0 0 0 0 0 0 0:279 
-0 -0 -0.04184879632369756 0 0 0.1573824010849975 0 0.08207173698812686 0 0.2108360947794926 0 0 0 0 0 0 0.04078567701265183 0 0 0 0 0 0 0 0 0 0 0 0 0 0 0 0 0 0 0.01565135919374735 0:280 
-0 -0 -0.08871009433927257 0.06412165682034837 0.1388654279675502 0.1861441078053168 0 0.189103698704337 0 0 0 0.08497472831251832 0.004598517552799789 0 0.3425644738690219 0.221062073289748 0.01587464842038401 0.04896808691452893 0 0 0 0 0 0 0 0.07696389097534545 0.02376820058612161 0 0.1702955282843864 0 0 0 0 0 0 0 0:281 
-0.01427083693529328 -0 -0 0 0.09221555377806459 0.3620455968081138 0 0 0.1291981594361044 0.1542011235725881 0 0.0771816535064747 0 0 0.03439328722174983 0 0.1161033184867764 0.043906167312585 0 0.03428650094650242 0 0 0 0 0.06794359011775207 0.09683550252293242 0.1145563200053346 0.05542170310064632 0.3830565130455458 0 0 0 0 0 0 0 0:282 
-0.09871408444869988 -0.0243028267939195 -0 0 0.09580907896870539 0 0 0 0 0 0 0 0.2109531754143512 0.1267532217436868 0 0 0.08348048182041291 0 0 0 0 0 0 0 0.2166925760233227 0 0.1403955790961121 0 0.02206775176486676 0 0 0 0 0 0 0 0:283 
-0.0391373242120142 -0 -0.1802690975001631 0.2015466525753024 0 0 0.1143880837420704 0.59419207752446 0 0.2145941273590987 0.203212427869974 0 0.1467808051865246 0 0 0 0 0.01697270435867178 0.2128359130520394 0.2466691510522473 0.2150279728155473 0.1748920035249251 0.3445483237822931 0.2816005981000232 0.06338646820154423 0 0.1576108069301581 0.143946341097821 0 0.1129564923486593 0.2100204218165576 0.3077551446568486 0.3404879908908248 0.2347903565360816 0.1510264117888586 0.2134257471531855 0:284 
-0 -0 -0 0 0 0 0 0 0 0 0 0 0 0 0 0 0 0 0 0 0.04929385017842861 0 0 0 0 0 0 0 0 0 0 0 0 0 0 0 0:287 
-0 -0.03277116017848877 -0 0.4807739191823368 0 0.365195426396643 0 0 0.04078864303462278 0.01424236827557526 0.2420423362379628 0 0 0 0 0 0.002454164456956237 0.04565621363070557 0 0 0 0 0.02143125728243435 0 0 0 0.006014871067123809 0 0 0 0 0 0 0.006624975892230361 0.02794700148454424 0 0:288 
-0.1429222897882548 -0 -0 0 0 0 0 0 0 0 0 0.3090907675241943 0.03483568562336749 0.1539910089278304 0 0 0 0 0 0 0 0.04802577975069641 0 0 0.05983331357401531 0 0.03654158715588267 0 0 0.02343135060298979 0.004214878891132144 0 0 0 0 0 0:289 
-0 -0 -0 0 0 0 0 0 0 0 0 0 0 0 0.07395975888884998 0 0 0 0 0 0 0 0 0 0 0.05901233453548582 0 0 0 0 0 0 0 0 0 0 0:290 
-0.03282209350780711 -0.03680130884497905 -0 0.2118407142145756 0 0 0 0 0 0 0.1883967462320772 0 0.001389257998193233 0.08479702570232694 0 0.07989730072990057 0 0.006570176383663774 0.2307213993744104 0.02365882720176314 0.05463431315384037 0 0.06944683333018481 0.1623629541640625 0.04016540550846624 0 0 0 0 0.134873609558501 0.05731609718267414 0.03954315142495178 0 0.03928000947499977 0.0741738150776884 0.139901261769712 0:293 
-0.08776132385031919 -0.3773373998548849 -0.4097659051429636 0 0.5950992213433605 0.1774216209899466 0.2330887213974008 0.1418161196312643 0.2839282067904795 0 0 0.4292189424117269 0.06698207028561488 0 0.2743809468071594 0.1228705747444102 0 0.1926323008999415 0 0 0 0 0.09151770136029884 0.02286536833766482 0 0.1758734591451891 0 0.2077720720300066 0.6187163667100194 0 0 0 0.1314784695066698 0.1496144745571436 0.04294040188426312 0.1595948401121737 0:294 
-0 -0 -0 0 0 0 0 0 0.2224936776944753 0 0 0 0 0 0 0 0 0 0 0 0 0 0 0 0 0 0 0 0 0 0 0 0 0 0 0 0:295 
-0 -0 -0 0.08090653300600106 0 0 0.09326149216859506 0 0 0.03499260482397759 0.002378232500885111 0 0.08125114598927169 0 0 0.04887576230019269 0.2457538721055065 0 0 0 0 0 0.01605621064444926 0 0 0.01379655906261471 0 0 0 0.007751346659596057 0 0 0 0 0.007174708247458136 0 0:297 
-0 -0 -0 0.1339598691268284 0 0 0 0 0 0 0 0 0 0 0 0 0 0 0 0 0 0 0 0 0 0 0 0 0 0 0 0 0 0 0 0 0:298 
-0 -0 -0 0 0 0 0 0 0 0 0 0 0 0 0 0 0 0 0 0 0.102559693281503 0 0 0 0 0 0 0 0 0 0 0 0 0 0 0 0:300 
-0 -0 -0 -0 0 0.07180291201133658 0 0 0 0 0 0 0 0 0 0 0 0 0 0 0 0 0 0 0 0 0 0 0 0 0 0 0 0 0 0 0:309 
-0 -0 -0 -0 0 0 0 0 0 0 0 0 0 0 0 0 0.05473265128947633 0 0 0 0 0 0 0 0 0 0 0 0 0 0 0 0 0 0 0 0:315 
-0.1366320274731829 -0.0265789613622888 -0.1250112277073983 -0.743167432346889 0.2917056463257383 0.4609064653057632 0 0.4063975837755608 0.3274517306676105 0.3205265084787618 0.3483355499509408 0.4441748551035786 0.4494379282214609 0.1380677086056762 0.4755748803631835 0.5297040654248714 0.670189887365752 0.3099484496442782 0.149659323573405 0.1088294659550351 0.1321371806947776 0.2173737817649987 0.05493046511519788 0.2646969790478084 0.113240092124012 0.3734350963961021 0.2557455279900926 0.4050561188712458 0.4259366726044573 0.07068047802339184 0.09329986119538636 0.1080299165897305 0.3326800450728374 0.08894172776787763 0.04866168577034743 0 0:317 
-0 -0 -0 -0.08079698544554732 0.05565463679231986 0.01518236099835583 0.06154913968861156 0 0 0.1710159543269307 0 0 0 0.003539797312083813 0 0 0 0 0 0 0 0 0.01419900610682053 0 0.03188247200031528 0 0 0 0 0 0 0 0 0 0 0 0:318 
-0 -0 -0 -0 0 0 0 0 0 0 0 0 0 0 0 0 0.007704501449858535 0 0 0 0 0 0 0 0 0 0 0 0 0 0 0 0 0 0 0 0:319 
-0 -0 -0.02128770492344841 -0.1520966946990184 0 0.3408387338464993 0 0 0 0.05038629877791393 0 0 0 0 0 0 0 0 0 0 0 0 0 0 0 0 0.02725917645479564 0 0 0 0 0 0 0 0 0 0:320 
-0 -0 -0 -0 0 0 0 0 0 0.01777380887571333 0 0 0 0 0 0 0 0 0 0 0 0 0 0 0 0 0 0 0 0 0 0 0 0 0 0 0:322 
-0 -0 -0.04842721071391307 -0 0 0 0.02159097145786895 0 0 0.1496441838187053 0 0 0 0 0 0 0 0 0 0 0 0 0 0 0 0 0 0 0 0 0 0 0 0 0 0.2223279176230328 0:323 
-0 -0 -0 -0 0 0 0 0 0 0 0 0 0 0 0 0 0.0736627107365926 0 0 0 0 0 0 0 0 0 0 0 0 0 0 0 0 0 0 0 0:324 
-0.06062635013009651 -0.08422126125334702 -0.2378677407312944 -0 0 0 0.3624520174263407 0.1429567494731395 0 0 0.1015329877200732 0 0.007323251277810405 0 0 0 0 0 0.07521229553910665 0.07621284004517845 0.2082444493275303 0 0.1512034312582275 0 0 0 0 0 0 0.104474518729547 0 0.05126536986189232 0.01418220068945909 0.1609478165982601 0.1315327623519412 0.3423790143379012 0:325 
-0 -0 -0 -0 0 0 0 0 0 0 0 0 0 0 0 0 0 0 0 0 0 0 0 0 0 0 0 0 0 0 0 0 0 0 0 0.004392698904447357 0:326 
-0.4138170796171259 -0.07037570188716682 -0 -0 0 0 0 0 0 0 0.4562820665593538 0 0.3494438771077385 0.3289398144879966 0 0 0 0 0.5381803979120381 0.1437242830833589 0 0.330567659817209 0.1732820982390682 0.1846112455106467 0.2985032058665573 0 0.1435249355247119 0 0 0.1975213755706022 0.2927292402099121 0.1943666187967805 0.04529395159386221 0.1214807795710773 0.1297010305509953 0 0:327 
-0 -0 -0 -0 0 0 0 0 0 0 0 0 0.01159566297916115 0 0 0 0 0 0 0 0.05081365361237728 0 0 0 0 0 0 0 0 0 0.003834815239702736 0 0 0 0 0 0:329 
-0 -0 -0 -0 0 0.2678082391457305 0 0 0 0 0 0 0 0 0 0 0 0 0 0 0 0 0 0 0 0 0 0 0 0 0 0 0 0 0 0 0:334 
-0 -0.1144810914990795 -0.008212806063095381 -0 0 0 0.05699740064661173 0 0 0 0.2988143618217193 0 0 0 0 0 0 0 0.0882129057860376 0.04949721173226976 0 0 0.2843621789262223 0.02549897045440055 0 0 0.008327898377957967 0 0 0.06329037472859951 0 0.01828177691414279 0 0 0.03877012812608864 0.06965444316680355 0:337 
-0.01460453608585844 -0 -0 -0 0 0 0 0 0 0 0 0 0 0.02941518662348383 0 0 0 0 0 0 0 0 0 0 0.1316960262821383 0 0 0 0 0 0 0 0 0 0 0 0:338 
-0 -0.09361464497533935 -0.103413652134183 -0.1970882324339379 0.2757407455011392 0.3641553874943283 0 0.2622153595270459 0.2145568718044273 0 0 0.2509186295514271 0 0 0.1303313716932603 0.05721802263248003 0.07919326247218066 0.1366938380016118 0 0 0 0 0 0 0 0.1185185751659308 0.04354988543081242 0.1161491162217964 0.2070146331162064 0 0 0 0.06114213642422762 0.04780995176302089 0.01309651733731065 0 0:339 
-0 -0.09436344544754732 -0 -0 0 0 0 0 0 0 0 0 0 0 0 0 0 0 0 0 0 0 0 0 0 0 0 0 0 0 0 0 0 0 0 0 0:340 
-0 -0 -0.04800966346862959 -0 0 0 0 0 0 0 0 0 0 0 0 0 0 0 0 0 0 0 0 0 0 0 0 0 0 0 0 0 0 0 0 0 0:341 
-0 -0 -0 -0 0 0 0 0 0 0 0 0 0 0 0 0 0 0 0 0 0.02177803513190055 0 0 0 0 0 0 0 0 0 0 0 0 0 0 0 0:342 
-0 -0 -0 -0 0 0 0 0 0 0.06905718090530316 0 0 0 0 0 -0 0 0 0 0 0.03848868656346595 0 0 0 0 0 0 0 0 0 0 0 0 0 0 0 0:343 
-0 -0 -0 -0 -0 0 0 0 0 0 0 0 0 0 0 0 0 0 0 0.003744361069327358 0 0 0 0 0 0 0 0 0 0 0 0 0 0 0 0 0:344 
-0 -0 -0.2347311961036246 -0.2152779993850491 -0 0 0.07608228139689567 0 0 0.01831027988286758 0 0.7345356933372853 0.03481994106472334 0 0.1752482196388789 0 0 0 0 0 0 0 0 0 0 0 0 0 0.2270381389670985 0 0 0 0 0 0 0.1121316185918432 0:362 
-0 -0 -0 -0 -0 0.001534584877562441 0 0 0 0.04836276418848435 0.04047319488062247 0 0 0 0 0 0 0 0 0 0 0 0 0 0 0 0 0 0 0 0 0 0 0 0 0 0:369 
-0.1085877985371925 -0 -0 -0 -0 0 0 0 0 0.06442783189498942 0.001052447304837104 0 0.1374054028611547 0.04160700989522391 0 0 0.190348026481518 0 0 0 0 0 0 0 0.1259759769944559 0 0.03317965282673458 0 0.0963096211601272 0 0 0 0 0 0 0 0:372 
-0 -0 -0.07992342841728738 -0.1449694020712695 -0 0 0 0 0.02143855498852238 0 0 0 0 0 0 0 0 0 0 0 0 0 0 0 0 0 0 0 0 0 0 0 0 0 0 0 0:373 
-0 -0 -0 -0 -0 0 0 0 0 0 0 0 0 0 0 0 0 0 0 0 0 0 0 0 0 0 0 0 0.3162637139419864 0 0 0 0 0 0 0 0:374 
-0 -0 -0.0114642672807024 -0 -0 0 0 0 0.5115963390518731 0 0 0.6312002247960522 0 0 0 0.1338243486575823 0 0.2991245114671171 0 0 0 0 0 0 0 0.3565347703256909 0 0.1999134510783964 0 0 0 0 0.09591356588941299 0 0 0 0:376 
-0.1205294854953323 -0.02812334165490279 -0.1009576292454326 -0.4526789312984562 -0.429526903299876 0.6348101928205956 0.0804102051332389 0.5698604295933903 0.3627037535188174 0.2544660963965387 0.2402340554011791 0.02698288960096993 0 0 0 0.01302209969933884 0.2238476191994795 0 0.005151628141974968 0.1267043708161015 0.06943587347165596 0 0.1948025916136236 0 0.09888627781565336 0 0.2848881296062248 0.05069764578283562 1.130167471988615 0.08195314328093097 0 0.05868494731044625 0.09589358404669504 0.1074853343274765 0.01258982528543797 0.005445972536883276 0:377 
-0.1548166940055364 -0.1704565983358812 -0.004908204079601097 -0.02564222716155404 -0.07311493134867403 0 0.1326259129398405 0 0 0.01063282852339043 0.2442568669069156 0 0.3379684705429812 0.3095289719802248 0 0 0.04731474662432253 0 0.4693221556568368 0.07726718048257734 0.271881815211012 0.3263145374857415 0.2818396956116739 0.3479766292027958 0.1569733463001826 0 0 0.2242481500382648 0.08679400034946061 0.2176135653764208 0.1595556116658792 0.2047499687303021 0.3346553386880568 0.2547834125069828 0.2397326587575447 0.2154244483350231 0:378 
-0.003029805806675971 -0 -0.1708260659214974 -0 -0 0 0 0 0 0 0 0 0.007243185214572737 0 0 0 0 0 0 0 0 0 0 0 0 0 0 0 0 0 0 0 0 0 0 0 0:380 
-0.01062447127639717 -0 -0 -0 -0 0 0 0 0 0 0 0 0 0.1396814690572611 0 0 0 0 0 0 0 0 0 0 0 0 0 0 0 0 0 0 0 0 0 0 0:381 
-0 -0 -0 -0 -0.07929766032763702 0 0 0.2732704512828186 0 0 0 0 0 0 0 0 0 0 0 0 0 0 0 0 0 0 0 0 0 0 0 0 0 0 0 0 0:382 
-0 -0 -0 -0.1777877761770442 -0 0.004212166285530663 0 0 0 0 0 0.3951112836939222 0 0 0 0 0 0 0 0 0 0 0 0 0 0 0 0.076066601573131 0 0 0 0 0 0 0 0 0:383 
-0 -0 -0 -0 -0 0 0 0 0 0 0 0.1745443048247851 0 0 0.6843253274794242 0.2565100491735758 0 0 0 0 0 0 0 0 0 0.00110370780016606 0 0 0 0 0 0 0 0 0 0 0:384 
-0 -0.008324722087393037 -0.007308839062639526 -0 -0 0.02419545613882858 0.01503901415023047 0 0.05947738190089293 0.05058514609505353 0 0 0.04907344602380755 0 0.0108353546842419 0 0.08914546896135349 0 0 0 0 0 0 0 0 0 0 0 0 0 0 0 0 0 0 0 0:385 
-0 -0 -0 -0 -0 0 0 0 0 0 0 0 0 0 0 0 0 0.02396293912529212 0 0 0 0 0 0 0 0.09691672612005535 0 0.08061603217513916 0 0 0 0 0 0 0 0 0:393 
-0 -0 -0 -0 -0 0 0 0.07653681128331165 0 0 0 0 0 0 0.4620664776761682 0.35466321085997 0.01649366954946993 0.2168093761404148 0 0 0 0 0 0 0 0.172411312165546 0 0 0.4511242557107145 0 0 0 0 0 0 0 0:394 
-0 -0 -0 -0 -0 0 0 0 0 0 0 0 0 0 0 0 0 0 0 0.02135274386161509 0 0 0 0 0 0 0 0 0 0 0 0 0.03466902021584724 0 0 0 0:396 
-0 -0.06616241675400762 -0 -0.06810594775728178 -0.04116153364301031 0.1254388065319118 0.01976540582839102 0 0 0.1159954399364548 0 0 0 0 0 0.006177989106624008 0 0.110911941112605 0 0 0 0 0 0.08710980902763168 0 0 0 0 0.2024069269663979 0.004420908354546549 0 0 0 0.01554367734468049 0.05387287570488868 0.0532769140321332 0:397 
-0.08103624425804243 -0.1588732102418006 -0.009541842903390716 -0.1077975764363963 -0 0 0.01673760073622186 0 0 0 0 0 0 0.01621910012036696 0 0 0 0 0.04283975401679652 0.1468307428512052 0.01106394442934591 0 0.04606765246881701 0.03982993688224028 0.09210070721602187 0 0.1085533727020832 0.003725109988510449 0 0 0.04864695338280196 0.03523842641766947 0 0.07588874038205225 0 0.003441129064423255 0:398 
-0 -0 -0 -0 -0 0.006722902537887216 0 0 0 0 0 0 0 0 0 0 0 0 0 0 0 0 0 0 0 0 0 0 0 0 0 0 0 0 0 0 0:399 
-0 -0 -0 -0 -0 0 0 0.08596280683899435 0 0 0 0 0 0 0 0 0 0 0 0 0 0.06591217378999854 0 0 0 0 0 0 0 0 0.08432228269948808 0 0 0 0 0 0:401 
-0 -0 -0 -0 -0 -0 0 0 0 0 0 0 0 0 0 0 0.185199826640038 0 0 0 0 0 0 0 0 0 0 0 0 0 0 0 0 0 0 0 0:404 
-0 -0 -0 -0.03362471237476023 -0 -0 0 0.0189293210895844 0 0 0 0 0 0 0 0 0 0 0 0 0 0 0 0 0 0 0 0 0 0 0 0 0 0 0 0 0:414 
-0 -0 -0 -0 -0.3082224292649572 -0 0 0 0 0.0622224552796948 0.01530785250912664 0 0 0 0 0 0.009335723598799143 0 0 0 0 0 0 0 0 0 0.1322628261178602 0 0 0 0 0 0 0 0 0 0:416 
-0 -0 -0 -0 -0 -0 0 0 0 0.174800631821101 0 0 0 0 0 0 0 0 0 0 0 0 0 0 0 0 0 0 0 0 0 0 0 0 0 0 0:419 
-0 -0 -0 -0.2896632685579557 -0 -0 0 0 0 0.2236538261028294 0 0 0 0 0 0 0 0 0 0 0 0 0 0 0 0 0 0 0 0 0 0 0 0 0 0 0:421 
-0.01151949314662291 -0 -0.1577787351879449 -0 -0 -0 0 0 0 0.02141927920610313 0 0 0.09269300374382324 0 0.2236677546149988 0 0.2490618532473437 0 0 0 0 0 0 0 0 0 0 0 0 0 0 0 0 0 0 0.01051364802243417 0:422 
-0 -0 -0 -0 -0 -0.0633623971388215 0 0.6059677494644216 0 0 0 0.1189498705842748 0 0 0 0 0 0 0 0 0 0 0 0.03673198329059758 0 0 0 0 0.06495401154542793 0 0 0 0.01276155639018225 0 0 0 0:423 
-0 -0.08006041591377382 -0 -0.4096968461399212 -0.2298509524897019 -0.2499916339777778 0 0 0.05617111954726026 0.04221785805207109 0.1212162903208767 0 0.3091431900306066 0.07721077162971945 0 0 0 0 0.1299405169961066 0.09261805313985899 0.04101195239049794 0 0 0.007250193892275943 0.132434747997899 0 0 0 0.09180314207315146 0.07309030201584089 0.08919708607937177 0.09964998018037828 0.05812827058121021 0.02824177935432341 0.01667802850846078 0 0:424 
-0 -0 -0.2829276492501412 -0 -0 -0.213375796959743 0.2372153618992275 0.5790234929317776 0.2238833601239476 0.0126922082878262 0.2627753253147245 0.07811614787293528 0 0 0.02381502563281778 0.0665118243320532 0 0.08912873407353478 0.1394420323030256 0.148332325520844 0.1107084471592482 0.08597143666032428 0.2922464093640313 0.05271306859588357 0 0.04698374255025492 0 0.2470812165172531 0.03748593549056609 0.1189752031747949 0 0.02409737046222709 0.1100814428425795 0.1363593887408515 0.1084924197127089 0.2701889110084396 0:425 
-0.1198175768460069 -0.07544253918464033 -0 -0 -0 -0 0 0 0 0 0 0 0 0 0 0 0 0 0 0.04805294419673828 0 0 0 0.07781666339914309 0.01691213504123218 0 0 0 0.2809492189573227 0 0 0 0 0 0 0 0:426 
-0 -0 -0.08717596915527326 -0 -0 -0 0 0.05280464806731659 0 0 0 0 0 0 0 0 0 0 0 0 0 0 0 0 0 0 0 0 0 0 0 0 0 0 0 0 0:430 
-0 -0 -0.06313215901759502 -0 -0.2180022847445028 -0 0.09730445409208233 0 0 0 0 0 0 0 0.006905133851012712 0.1462777188611952 0 0.08024695761453657 0 0 0 0 0 0 0 0.1121498275222334 0 0 0 0 0 0 0 0 0 0 0:435 
-0 -0 -0 -0 -0 -0 0 0 0 0 0 0 0 0 0 0 0 0 0 0 0.1727523069587844 0 0 0.01671432140398848 0 0 0 0 0 0 0 0 0 0 0 0 0:439 
-0.04201374412882986 -0.1134799245592421 -0 -0 -0 -0 0.1216514086074729 0 0 0 0 0 0.1058714941482347 0 0 0 0 0 0 0 0.05366937839034062 0 0.02157299917448015 0.008466677402300275 0.05160990778200874 0 0 0 0 0 0 0.01876743061363242 0 0.1234884800226916 0.02672170585248794 0.2218695939817222 0:440 
-0 -0 -0 -0 -0 -0 0 0 0.03873127396830499 0.2674872846601309 0 0 0 0 0 0 0.4296558752582207 0 0 0 0.03219719195379636 0 0 0 0.08492539258565468 0 0.1311589628268982 0 0.001648891041907858 0 0.0002783765614003032 0 0 0 0 0 0:441 
-0 -0 -0 -0 -0 -0 0 0 0 0 0 0 0 0 0 0 0 0.04531279237593068 0 0 0 0 0 0 0 0.04624059430551898 0 0 0 0 0 0 0 0 0 0 0:442 
-0.08585466406107119 -0.08652647382155558 -0.001322208686273591 -0.5152043260123803 -0.6165730677598569 -0.0317671605213419 0 0 0 0.01590637842633628 0.07713976777432179 0.09109672957022041 0 0 0 0 0 0 0.03032470426992787 0.06216879321515113 0 0 0 0 0 0 0 0 0 0 0 0 0 0 0 0 0:451 
-0.3275783425132276 -0 -0 -0 -0 -0 0 0.2615233055070484 0 0 0.1112422460723332 0.4682115878275294 0.3354996924341128 0.4074987133264505 0.4580924255417806 0.2764757779330582 0.1933071752310495 0.2251689882394259 0.1248336595842109 0 0 0.2713218015799864 0.2435746527543269 0.2174420648636126 0.278349223482016 0.2608582067677886 0.1911307750659015 0.2171879678640597 0.1250219794357521 0.1390198011507981 0.1977908422003138 0.1643776050254003 0.141974128895922 0.1289169366127315 0.1468724037822827 0 0:452 
-0 -0.00692680388234655 -0 -0 -0.07667083316839031 -0 0 0 0 0 0 0 0 0 0 0 0 0 0.02501203904313045 0 0 0 0 0 0 0 0 0 0 0 0 0 0 0 0 0.01033897351288401 0:453 
-0 -0.02171899680176112 -0.121044735813166 -0 -0 -0.2384171205946322 0 0.07148109697887087 0 0 0 0.1022793559407024 0 0 0.08532241748110957 0 0 0.0231862546041672 0 0 0 0 0 0 0 0.09633126167066497 0 0 0.2238739431704531 0 0 0 0 0 0 0 0:454 
-0 -0.03838880194071815 -0 -0 -0 -0 0 0 0.2666237305897972 0 0 0.1224483724352505 0 0 0 0.134628104994303 0.0384534082133049 0 0 0 0 0 0 0 0 0 0 0.06888584160885126 0 0 0 0 0.1016188080200119 0 0 0 0:455 
-0 -0 -0 -0 -0 -0 0 0 0 0 0 0 0 0 0 0 0 0 0 0 0.04040455935591429 0 0 0 0 0 0 0 0 0 0 0 0 0 0 0 0:460 
-0 -0 -0 -0 -0 -0 0 0 0 0 0 0 0 0 0 0 0 0.03639886328355524 0 0.002278801516543166 0 0 0 0 0 0 0 0 0 0 0 0 0 0 0 0 0:461 
-0 -0 -0 -0 -0.07137453137460456 -0 0 0 0 0 0.3241056114870139 0 0 0 0 0 0 0 0 0.01124944608222428 0 0 0.03992246578042793 0 0.05812399350645208 0 0.1398566167345956 0 0 0 0.01617978165406003 0 0 0 0 0 0:462 
-0 -0 -0 -0 -0 -0 -0 0 0 0 0 0 0 0 0 0 0 0 0 0 0 0 0 0 0 0 0 0 0 0 0 0 0 0 0 0.6430243646937371 0:463 
-0 -0 -0 -0 -0.004249553936227527 -0 -0 0 0 0 0 0 0 0 0 0 0 0 0 0 0.108373176003965 0 0 0 0 0 0 0 0 0 0 0 0 0 0 0 0:464 
-0 -0 -0 -0 -0 -0 -0 0 0 0 0 0 0 0 0 0 0 0 0 0 0.06296637618938325 0 0 0 0 0 0 0 0 0 0 0 0 0 0 0 0:471 
-0 -0 -0.1962716583774383 -0 -0 -0 -0 0 0 0 0 0 0 0 0 0 0 0 0 0 0 0 0 0 0 0 0 0 0 0 0 0 0 0 0 0.4269695060746975 0:480 
-0 -0 -0 -0 -0 -0 -0.06128490598435026 0 0 0 0 0 0 0 0 0 0 0 0 0 0 0 0 0 0 0 0 0 0 0 0 0 0 0 0 0.09444670548779684 0:481 
-0 -0 -0 -0.1205186539281492 -0.1237758995974986 -0.03495152110786396 -0.2758858850861681 0.1046510358665112 0.1282129139101902 0.01826639416308104 0.1603115039706203 0.1590788811384368 0.05907038486580763 0.07866935148735789 0.12326044189487 0.3432009950042686 0.09397296713170693 0.3068443163159182 0.1289513405978873 0.01389477993155319 0.1018037709723671 0.1155959817318588 0.1885191631369894 0.0415899690374457 0 0.3142705428325012 0.09169896903964608 0.2800506124329023 0.04227866856646542 0.07622407054222451 0.01623555023364938 0 0.1624840465102218 0.06419917422175644 0 0 0:485 
-0 -0 -0 -0 -0.1164523558380478 -0 -0 0 0 0 0 0 0 0 0 0 0 0 0 0 0 0 0 0 0 0 0 0 0 0 0 0 0 0 0 0.1983285442504235 0:486 
-0.235382455259961 -0.2079805122368562 -0.3118534042840452 -0.2055266038637896 -0.2169147359192996 -0.1974341231902692 -0.0769955448734076 0.1488605531355638 0.2092268363599263 0.2677944861097249 0.1301408889424656 0.1533784443886282 0.2880084497991863 0.1992747428616876 0.05588761554438039 0 0.2038893838015165 0 0.2924626710894873 0.1842959334811509 0.0357881726671429 0.1552532576977853 0.2648073180152547 0.1181736242288663 0.2549336769660848 0 0.1735833150766936 0.09474992135988652 0.1943941975591382 0.1320579082027259 0.1347575797659654 0.1849933367320319 0.1505003325027368 0.1607714823360347 0.2523885136741323 0.4283916227962548 0:488 
-0 -0 -0.2981592421441897 -0 -0 -0 -0 0.1176223886585715 0 0 0 0 0 0 0 0 0 0 0 0 0 0 0 0 0 0 0 0 0 0 0 0 0 0 0 0 0:489 
-0 -0 -0 -0 -0 -0 -0 0 0 0.0363418249771926 0.02898490162477632 0 0 0 0 0 0 0 0 0 0.005191081664300407 0 0 0 0 0 0 0 0 0 0 0 0 0 0 0.02742134894765739 0:493 
-0 -0 -0.1655793668474982 -0 -0 -0 -0 0 0 0 0 0 0 0 0 0 0 0 0 0 0 0 0 0 0 0 0 0 0 0 0 0 0 0 0 0.2128398376270923 0:494 
-0 -0 -0 -0 -0.04119698392835949 -0 -0 0 0 0 0 0 0 0 0 0 0 0 0 0 0 0 0 0 0 0 0 0 0 0 0 0 0 0 0 0 0:500 
-0 -0.09482739098683055 -0 -0 -0 -0 -0.01052520817349432 0 0 0 0 0 0 0 0 0 0 0.03464594149721763 0 0 0 0 0 0.05946139839684712 0 0 0 0.006510503368859155 0 0 0 0 0 0 0 0 0:502 
-0 -0 -0 -0 -0 -0 -0 0 0 0 0 0 0 0 0 0 0 0 0 0 0 0 0 0 0 0 0 0 0 0 0 0.1151743361094318 0 0 0.1155065342596453 0 0:509 
-0 -0 -0 -0 -0 -0 -0 0 0 0 0 0 0 0 0 0 0 0 0 0 0 0 0 0 0 0 0 0 0 0 0 0 0 0.004030883420400845 0 0 0:511 
-0.1039214314193331 -0.3371199461711606 -0.1022762581935102 -0.06030775858588698 -0 -0.1082747758866853 -0 0.05720257466087224 0.05823402985110334 0 0 0.1304961255249847 0.05095523600389344 0.04686433628284423 0.1871071514728677 0.0978864552536195 0.01393506081146498 0.06829612784666063 0.05309401335154491 0 0 0 0 0 0.08078216172706884 0.124513674531047 0.03417617279910539 0.07559339992956624 0.1064323099822896 0.1530225250320136 0 0 0 0.1140784107930239 0.01374140478342955 0 0:512 
-0.06303394803722565 -0 -0 -0 -0 -0 -0 0.1334507443221062 0 0 0 0 0.03391385922896181 0.01736001588625629 0.06494407183539758 0.03152392150335932 0.06382570537094211 0 0 0 0 0.02400498451239157 0 0 0.02873099357631163 0 0 0 0 0 0 0 0.07552534656545747 0 0 0 0:513 
-0 -0 -0 -0 -0 -0 -0.03147968048136254 0 0 0 0.1584524145013458 0 0 0 0 0 0 0 0 0.1204507160415811 0.005872444162343689 0 0.1915731565623893 0.1975452283089787 0.007932929775762871 0 0 0 0 0 0.1011497356847072 0.1040295491635772 0 0.05590374714332456 0 0 0:514 
-0 -0 -0.07572996871979591 -0 -0 -0 -0 0 0 0 0 0.005331227353184593 0.001829535470230774 0 0.008650164588659926 0 0 0 0 0 0 0 0.01833718259085634 0 0 0.01122449439764486 0 0 0 0 0 0 0 0 0 0 0:515 
-0 -0 -0 -0.05438528093024046 -0 -0 -0 0 0 0 0 0 0 0 0 0 0 0 0.158831981712393 0 0 0 0 0 0 0 0 0 0 0.2136867248944035 0 0 0 0 0.3299557912375083 0 0:516 
-0 -0 -0 -0 -0 -0 -0 0 0 0.1987253854889837 0 0 0.01696813154636168 0.01163084332036167 0 0 0 0 0 0 0.1169193118383801 0 0.04443847167330534 0 0 0 0 0 0 0 0 0.09345650245011904 0 0.1009098741368733 0 0 0:518 
-0 -0 -0 -0.175009284263233 -0.08428210512926615 -0 -0 -0.07863801879532406 0 0 0 0.06503739823910902 0 0 0 0 0 0 0 0 0 0 0 0 0 0 0 0 0 0.01219788354806231 0 0 0 0 0 0 0:520 
-0 -0 -0 -0 -0 -0 -0 -0 0 0 0 0 0 0 0 0 0 0 0 0.07963529095221225 0.02683495828697232 0.0144478047771749 0 0 0 0 0 0 0 0 0 0 0 0 0 0 0:527 
-0 -0 -0 -0 -0 -0.1656010072961686 -0 -0 0 0 0.007332997047689683 0 0 0 0 0 0 0 0.1402892691535007 0 0.006623264395995476 0 0.2695801673196178 0.141921014878703 0 0 0 0 0 0 0 0 0 0.1637247630248248 0.1205426917615533 0.04817805546281723 0:528 
-0 -0 -0.09000055248252878 -0 -0 -0 -0 -0 0 0.1309634121972922 0 0 0 0 0 0 0 0 0 0 0 0 0 0 0 0 0 0 0 0 0 0 0 0 0 0.04501388600495471 0:529 
-0 -0 -0.09130301594743381 -0 -0 -0 -0 -0 0 0 0 0 0 0 0 0 0 0 0 0 0 0 0 0 0 0.002217151634041258 0 0 0 0 0 0 0 0 0 0 0:533 
-0 -0 -0 -0 -0 -0 -0 -0 0 0 0 0 0 0 0 0 0 0 0 0 0 0 0 0 0 0 0 0 0.05018726802109487 0 0 0 0 0 0 0 0:534 
-0.5035090842965588 -0.06319617088765528 -0.1673320001618037 -0.258109029541747 -0.213092608957704 -0.3945691548529288 -0 -0 0.1580355641233668 0.06731286304383734 0.2614434214261315 1.517883992934034 0.4411502023788859 0.3028057145653448 0.9036126376625868 0.2501660486692895 0.5178017428237816 0.1114683884942948 0.07073809582131815 0.1136760345269115 0 0.4128505659100561 0 0 0.3970361627403104 0.244512111883632 0.4045189568944464 0.1484834641371261 0.3960384048123751 0.07847238584679138 0.2337971445393845 0.03961200155884025 0.1798116692860704 0 0 0 0:535 
-0 -0.06726785845832536 -0.1831478454301057 -0.1603352930681511 -0.1388475795602928 -0 -0.1099922095470643 -0 0.03297547817276406 0.2244123778227735 0 0 0.01096142980183388 0 0 0 0 0 0 0 0 0 0 0 0 0 0 0 0.2051143513633097 0 0 0 0 0.02243184335110003 0 0.04507511199958054 0:537 
-0 -0 -0 -0 -0.001880461416093597 -0 -0.1456173945185131 -0 0 0 0 0 0 0 0 0 0 0.05088302412452219 0 0 0 0 0 0 0 0 0 0 0 0 0 0 0 0 0 0 0:539 
-0.002667094607917636 -0 -0 -0 -0 -0 -0.1689700588131245 -0 0 0 0 0 0 0.07949639493869966 0 0 0 0 0 0 0 0 0.003051334064598677 0 0.03490802424574491 0 0 0 0 0.01004340217662527 0 0 0 0 0 0 0:540 
-0 -0 -0 -0.1659694264184033 -0.1941359863268362 -0 -0.5336024550013242 -0.007826890375932859 0.2436123738652682 0.1571042813288272 0.1400084533975397 0 0.01252684635006483 0 0 0.02479263559808198 0.1798346300117283 0 0.04623396587533937 0.04745288836972698 0.08476231217813893 0 0 0 0 0.002329194754304025 0.1763595813897875 8.31174937708215e-05 0.06390773190527013 0.05868168078308832 0 0.04678858110068819 0 0.0833767636183563 0.06190351616874459 0.06257453936054538 0:541 
-0 -0 -0 -0 -0 -0 -0 -0 0 0 0 0 0 0 0 0 0 0 0 0 0.101797919420108 0 0 0 0 0 0 0 0 0.03481869154630134 0 0.04460407489739683 0 0.06792303571977897 0 0 0:542 
-0.1161392212001462 -0.1650252923277998 -0.6156368231804067 -0 -0 -0.03723697882148406 -0 -0.3654104092221605 0.1268292399919654 0 0.1101819337854846 0 0.1434542492676435 0.03527485738260906 0 0 0.1656032247919018 0 0.3529199615832525 0.1014243065322877 0.02866235855722879 0.07213667904660925 0.3270209461575376 0.1865926080182323 0.1493446005874879 0 0 0.009383858605701893 0 0.1062415144965331 0.03061401228327073 0.1435988666393419 0.1406355466775425 0.3502147378823793 0.1645953102651501 0.4714862725999185 0:543 
-0 -0 -0 -0.01518670348737084 -0 -0 -0.3259046049002457 -0 0 0 0 0 0 0 0 0 0 0 0 0 0 0 0 0 0 0 0 0 0 0 0 0 0 0 0 0 0:544 
-0 -0 -0 -0.09572023244590801 -0 -0 -0 -0 0 0 0 0 0 0 0 0 0 0 0.0180912901990803 0 0 0 0 0 0 0 0 0 0 0 0 0 0 0 0 0 0:545 
-0 -0 -0 -0 -0 -0.3574627159754765 -0 -0 0 0 0 0 0 0 0.009342366698108905 0 0 0 0 0 0 0 0 0 0 0 0 0 0 0 0 0 0 0 0 0 0:546 
-0 -0.1048554602088622 -0 -0 -0 -0 -0 -0.1099119782502074 0 0 0 0 0 0 0 0 0 0.1169037531770969 0 0.01823908265539459 0.1212727852994518 0 0.09385061379185693 0.2232208595304639 0 0 0 0.2721922272185135 0 0.03179715746020718 0.003940811732111501 0.03981957210310714 0.3536864519785014 0 0.05263112008785452 0 0:553 
-0 -0 -0 -0 -0 -0 -0 -0 0 0 0 0 0 0 0 0 0 0 0 0 0 0 0 0 0 0 0 0 0.1432530631958641 0 0 0 0 0 0 0 0:556 
-0.2204015833348053 -0 -0 -0 -0 -0 -0 -0 0 0 0 0.04095057678596096 0.1589088805471515 0.1409991644652425 0.2612703258970022 0 0.1117212156554253 0 0.06442990897602253 0 0 0 0 0 0.1202444101490673 0 0.02756226561343083 0 0 0 0 0 0 0.06083201338355724 0 0 0:558 
-0 -0 -0 -0 -0 -0 -0 -0 0 0 0 0 0 0 0 0.1519922467351155 0 0.001434030544608672 0 0 0 0 0 0 0 0 0 0 0 0 0 0 0 0 0 0 0:559 
-0 -0 -0.07399162723714195 -0.1368536636233749 -0.1793309513855536 -0.05076064205245703 -0.3056428912587476 -0 0.2208765915760913 0.09856841051309244 0.503267477166115 1.212689907238428 0 0 0.2462035117987392 0.4003032983269218 0 0.641242783455319 0 0.03969671210317931 0.09065576565448716 0 0.3655504178592515 0.02185137917719974 0 0.6583883002057933 0.07486949212733172 0.4670232650978619 0.3919397052455458 0.01288615170157009 0 0 0.1034502275055991 0 0 0 0:563 
-0 -0 -0 -0 -0 -0 -0 -0 0 0 0 0 0 0 0 0 0 0 0 0 0 0 0 0 0 0 0 0 0 0 0.1434171103612546 0.09767916180268169 0 0 0 0 0:564 
-0 -0 -0 -0 -0 -0 -0 -0 -0 0 0 0 0 0 0 0 0 0 0 0 0 0 0 0 0 0.01451999036342923 0 0 0 0 0 0 0 0 0 0 0:566 
-0 -0 -0 -0 -0 -0 -0 -0 -0 0 0 0 0 0 0 0 0 0 0 0 0 0 0 0 0 0 0 0 0 0 0 0 0.02302694253404767 0 0 0 0:570 
-0 -0 -0 -0 -0 -0 -0 -0 -0 0 0 0 0 0 0 0 0 0 0 0 0 0 0 0 0 0 0 0 0 0 0 0.05598646905461099 0 0 0 0 0:576 
-0.06801757075990032 -0.3340694522677564 -0 -0.2082399298745883 -0.01280982356189785 -0 -0.1752615058291469 -0.1888196480557247 -0 0.1469354981564759 0 0 0.07149360289454371 0.02917072349503307 0 0 0.06160053938942738 0 0.09239727914120784 0.03928193818282823 0.1118632085379139 0 0.1034057853321962 0.103475012626536 0.1698880742395159 0 0.003445463407594693 0.04921256241367332 0.01218689617758554 0.1583571797542176 0 0.01282785083322737 0 0.08622381455912803 0.1094751052205255 0.07618309285414797 0:581 
-0.0186267867829099 -0 -0.1241198631922007 -0.002545851272217223 -0 -0.5008357366074956 -0.03973032973252805 -0 -0.1759354116416914 0.04863016389747698 0 0.4862456482793415 0 0.07120715086078006 0.3452050065730229 0.3724866565211755 0.166263499000494 0.1729612694216706 0 0 0 0 0 0 0 0.2137718858236432 0.07634647205181383 0.2491664460791408 0.5707825467383619 0 0 0 0.03358531107399915 0 0 0 0:582 
-0 -0 -0 -0 -0 -0 -0 -0 -0 0 0 0 0 0 0 0 0 0 0 0 0 0 0 0 0 0 0.09511758626710934 0 0 0 0 0 0 0 0 0 0:584 
-0 -0 -0 -0 -0.01502399880580607 -0 -0 -0 -0 0.06404862717575557 0 0 0 0 0 0 0 0 0 0 0 0 0 0 0 0 0 0 0 0 0 0 0 0 0 0 0:587 
-0 -0 -0 -0 -0 -0 -0 -0 -0 0.011159887153059 0 0 0 0 0 0 0 0 0 0 0 0 0 0 0 0 0 0 0 0 0 0 0 0 0 0 0:588 
-0 -0.07146914840738802 -0 -0.110319291665522 -0 -0 -0.008237096970410144 -0 -0 0.04607529883516939 0 0 0 0 0 0 0 0 0 0 0.02016293476074868 0 0 0 0 0 0.02206343468985973 0 0 0.004679005929509319 0 0 0 0.007547019457091961 0 0 0:589 
-0 -0 -0 -0 -0 -0 -0 -0 -0 0 0 0 0 0 0 0 0 0 0 0 0 0 0 0 0 0 0.09255855727710081 0 0 0 0 0 0 0 0 0 0:590 
-0.1198959367335807 -0 -0 -0 -0.008762312975465567 -0 -0 -0 -0.1659225896623313 0.007692668107864889 0.2333826723463407 0 0.07030575464731637 0 0 0 0 0 0 0.1055939304399491 0 0 0.0209936534715595 0.09474215157446179 0 0 0.1124305840815147 0 0.128835117098748 0 0.02991776043698935 0 0 0 0 0 0:591 
-0 -0.0002294373588098798 -0.3964974007476012 -0.149131512899867 -0.2015860783264425 -0.2442652313347521 -0.1687756899965064 -0.1444434863694927 -0.1332891000247332 0.09596569389502031 0.02528759245921753 0.362431328349614 0 0 0.2319620347215438 0.1168287231039957 0.1547570003256643 0.04978489498436738 0.04963477285620481 0.05102471696579343 0 0 0.1431168460754902 0 0 0 0 0 0.386928323228865 0 0 0 0 0 0 0.1348042161757418 0:592 
-0 -0 -0 -0 -0.006444125650899293 -0 -0 -0 -0.06242667056251796 0 0 0 0 0 0 0 0 0 0 0 0 0 0 0 0 0 0 0 0 0 0 0 0 0 0 0 0:593 
-0.1938885712120986 -0.02152330906301871 -0 -0 -0.215428493263449 -0 -0.1297168268036599 -0.04402781774841764 -0.1139051638779818 0 0.2685250654766489 0 0.3016172644254513 0.2104982717721658 0 0.1169390605163936 0.2251197732017736 0 0.2276634309539986 0.01222088443236082 0.01368781295862401 0.1460536844992087 0.2505243082521114 0.1101050680814553 0.2428626926459616 0 0.04596437237875106 0 0 0.147776115713074 0.1677436477828377 0.245328948844721 0.1554953440092906 0.2691003950246677 0.195989507763088 0.05312269959922818 0:594 
-0 -0 -0 -0 -0 -0 -0 -0 -0 0 0 0 0 0 0 0 0 0 0 0 0 0.06405739699234822 0 0 0 0.4060188446786596 0 0.3206404296473781 0 0 0 0 0.3711901367322282 0 0 0 0:595 
-0 -0 -0 -0 -0 -0 -0 -0 -0 0 0 0 0 0 0 0 0 0.2542928278473688 0 0 0 0 0 0 0 0.1769241654175791 0 0 0 0 0 0 0 0 0 0 0:601 
-0.04867114934547637 -0 -0 -0.09317308500749452 -0.06105589061198304 -0 -0 -0 -0 0 0 0 0 0.1325145178040018 0 0 0 0 0.02038965412300331 0 0 0 0 0 0.09104185014072638 0 0.1121692786235231 0 0 0 0 0 0 0 0 0 0:602 
-0 -0 -0 -0.08695831853457074 -0.02089787927609461 -0.1689064811125619 -0 -0 -0 0.02012016179402781 0 0.05330182656509654 0.0833909642850329 0.00609829476693957 0.0363894497472174 0.06249905411350192 0 0.02604309134911358 0 0 0.1785329618097964 0.1117489545515185 0 0.1182015214640147 0 0.1100684683880714 0 0.1348936427679572 0.1769734585308324 0 0.1329785009825168 0.1098065356920781 0.1938324054594059 0 0.08454401739519571 0 0:608 
-0 -0.04858787911593922 -0 -0 -0 -0 -0 -0 -0 0 0 0 0 0 0 0 0 0 0 0 0 0 0 0.0425147622899576 0 0 0 0 0 0 0 0 0 0 0 0 0:609 
-0.03359433079382565 -0 -0.295076719657892 -0.02604069770142227 -0 -0.04120858040529603 -0.06368803489705864 -0.01838282794758484 -0.1308503119601999 0.08002188456501939 0.03941771440069371 0.13282495768513 0 0 0.09937928086435512 0.009375562208820767 0 0.1332961633005543 0.0206367082555614 0.1786294395381711 0 0 0.04411040392248695 0 0 0.09492103442114287 0.001396329829540167 0.060429545166049 0 0 0 0 0 0.07292717097637341 0 0.1147229139738726 0:610 
-0 -0 -0 -0 -0 -0 -0 -0 -0 0 0 0 0 0 0 0 0 0.03952061078611881 0 0 0 0 0 0 0 0 0 0 0 0 0 0 0 0 0 0 0:611 
-0 -0 -0 -0 -0 -0 -0 -0 -0 -0 0 0 0 0 0 0 0 0 0 0 0.2720241227169072 0 0 0 0 0 0 0 0 0 0 0 0 0 0 0 0:614 
-0 -0 -0 -0 -0 -0 -0 -0 -0 -0 0 0 0 0 0 0 0 0 0 0 0.09390175595728695 0 0 0 0 0 0 0 0 0 0 0 0 0 0 0 0:616 
-0 -0 -0 -0 -0 -0 -0 -0 -0 -0 0 0 0 0 0 0 0.001152921202375926 0 0 0 0 0 0 0 0 0 0.07577396297468234 0 0 0 0 0 0 0 0 0 0:627 
-0 -0 -0 -0 -0 -0 -0.1163866097694694 -0 -0 -0 0 0 0 0 0 0 0.1095622344898911 0 0 0 0 0 0 0 0 0 0 0 0 0 0 0 0 0 0 0 0:633 
-0 -0.1198339059315617 -0 -0 -0 -0 -0 -0 -0 -0 0 0 0 0 0 0 0 0 0 0 0 0 0 0.06783672171517145 0 0 0 0.1017646268947924 0 0 0 0 0.08815167016696632 0 0 0 0:649 
-0.0907560169849003 -0 -0.05019617510219046 -0.09928927962991138 -0 -0.1779225642424883 -0 -0 -0 -0.03391412205022513 0 0.1050728907305226 0 0.1051918685192515 0 0 0 0 0.05611523436321002 0.1420454807033462 0 0.0322612325990942 0.0616260006069166 0 0.06964252016864654 0 0 0.05940627583821564 0.2882125605498665 0 0 0 0.03338871423716142 0 0 0.007192502635211376 0:650 
-0 -0 -0 -0 -0 -0 -0 -0 -0 -0 0 0 0.2308857288226051 0 0 0 0 0 0.04975154531519645 0 0 0.115127062241054 0.05365713442626705 0.2262271014203454 0 0 0 0 0 0 0.06224865421470034 0.04260632043489217 0 0.008488351295325422 0.005647927144025769 0 0:651 
-0.01847780055703611 -0.1740620562648217 -0 -0.315578328601511 -0.2388683848195378 -0 -0.06667184023705532 -0.037197976282224 -0.0540733368586142 -0.09335898775902818 0.1360956944679565 0 0 0 0.07365374143701439 0.02875161875953344 0.325914020308453 0.01078204325878933 0.12934624106569 0 0 0 0.1401112195793984 0 0.01941581831321095 0.02112987704689153 0.118585424290622 0.1050963094365706 0.03879896907568971 0.1859096645574779 0 0.1174309882439302 0.0350652769672434 0.1211054324266521 0.1948069030889843 0 0:652 
-0 -0 -0 -0 -0 -0 -0 -0 -0 -0 0 0 0.0153634487753642 0 0 0 0.008336549163607902 0 0 0 0 0 0 0 0 0 0 0 0 0 0 0 0 0 0 0 0:666 
-0 -0 -0 -0 -0 -0 -0 -0 -0 -0 0 0 0 0 0 0 0 0 0 0 0.1842881180238511 0 0 0 0 0 0 0 0 0 0 0.0005630055779857328 0 0.02477744894785523 0 0 0:667 
-0 -0 -0 -0 -0 -0 -0 -0 -0 -0 0 0 0 0 0 0 0 0 0 0.03246871958301956 0 0 0 0.03446329147486012 0 0 0 0 0 0.0190886798270011 0 0 0 0 0 0 0:668 
-0 -0 -0 -0 -0 -0 -0 -0 -0 -0 0 0 0 0 0 0 0 0 0 0 0 0 0 0 0 0 0 0 0 0 0 0.01615324409932384 0 0 0 0 0:673 
-0 -0 -0.3570605337987461 -0.09605655680799385 -0 -0.3848578226752905 -0.0839072859750102 -0 -0.4143877521775398 -0.3814953635019503 0 0.5887624936828808 0 0 0.5177166469244524 0.4374720632078044 0 0.4714133579195359 0 0 0 0 0 0 0 0.4689920594023366 0.06892753743607137 0.3476440077581757 0.3977198405152941 0 0 0 0.1711910455214149 0.01324393126713005 0 0 0:689 
-0 -0 -0 -0.1310322846897261 -0.2296162831027195 -0 -0.3591618451546086 -0 -0 -0 0.2276831795223174 0 0 0 0 0 0 0 0 0 0 0 0 0 0 0 0 0 0 0 0 0 0 0 0 0.03986063682281334 0:690 
-0.1221232898881515 -0 -0 -0 -0 -0 -0.008654448813217258 -0 -0.1104616155068973 -0 0.0403983712833037 0 0.05399309975925989 0 0 0 0.2439752942877456 0 0 0.1358967133608028 0 0.03637776338425796 0.03755914572322144 0 0.01101765854256586 0 0.05171125516889655 0 0 0 0.04743549778704287 0.01783730406120851 0 0.0203916040480983 0 0.05594272417001297 0:691 
-0 -0 -0 -0.002973256855740168 -0 -0 -0 -0 -0 -0 0 0 0 0 0 0 0 0 0 0 0 0 0 0 0 0 0 0 0 0 0 0 0 0 0 0 0:692 
-0 -0 -0 -0 -0 -0 -0 -0 -0 -0 0 0 0 0 0 0 0 0 0 0 0.3610017410927917 0 0 0 0 0 0 0 0 0 0 0 0 0 0 0 0:703 
-0 -0 -0 -0 -0 -0 -0.07085645057923845 -0 -0 -0 0 0 0 0 0 0 0 0 0 0 0 0 0 0 0 0 0.02317697051637208 0 0 0 0 0 0 0 0 0 0:707 
-0.04025746308320115 -0 -0 -0 -0 -0 -0 -0 -0 -0 0 0 0 0 0 0 0 0 0 0 0 0 0 0 0.07151502145695413 0 0.002208461163745931 0 0 0 0 0.01287943583639918 0 0 0 0 0:708 
-0.01375628533027796 -0 -0.02316720068969725 -0.1652822353318199 -0 -0 -0 -0 -0.03407047086269725 -0.01188141026866557 0 0 0.05254413102363231 0.04910466400740243 0.01330190083408708 0 0.02093802556864603 0 0 0 0 0.07037115992206106 0 0.04831294585753509 0 0 0 0 0 0.01843880477500513 0 0 0 0.03569561569662479 0.001302990607638863 0 0:712 
-0 -0.0597612280225189 -0 -0 -0 -0 -0.1147614413074935 -0 -0 -0 0.005488573473060709 0 0.1178586436007859 0.07362048625614145 0 0 0 0 0 0 0 0 0 0.001130424205662502 0.07501083843271697 0 0.1021772893354758 0 0 0 0 0 0 0 0 0 0:713 
-0 -0 -0 -0 -0 -0 -0 -0 -0 -0 0 0 0 0 0 0 0 0 0 0 0 0 0 0 0 0 0 0 0 0 0.06452506659443832 0 0 0 0 0 0:714 
-0.1013320645167712 -0.02636828314713677 -0.08440438202397912 -0 -0.3099192672610709 -0 -0 -0.3877759834225485 -0.06536816950007415 -0 0.07126795839622189 0 0.1950050349291033 0.1153717574978379 0 0 0.01635739227775307 0 0.2440721343317089 0.01672113485210595 0.1260746496830991 0.06606215747468655 0.147814413436481 0.08373984829801731 0.151257240095876 0 0 0.0266883148426365 0 0.1116866154456996 0.06637201775628357 0.1223750754917964 0.06900176194860262 0.1372313802749535 0.1517786498891158 0.3428792967790247 0:716 
-0 -0 -0 -0 -0 -0 -0 -0 -0 -0 0 0 0 0 0 0 0 0 0 0 0.03005923628270171 0 0 0 0 0 0 0 0 0 0 0 0 0 0 0 0:720 
-0 -0.06348294366335305 -0 -0 -0 -0 -0 -0.09615413103420974 -0 -0 0 0 0 0 0 0 0 0 0 0 0 0 0.1257655008495092 0 0 0 0 0 0 0 0 0 0 0.06265418326153091 0 0.1332933664955548 0:728 
-0 -0 -0 -0 -0 -0 -0.1017285272085919 -0 -0 -0 -0 0 0 0 0 0 0.1349421819000672 0 0 0 0 0 0 0 0 0 0 0 0 0 0 0 0 0 0 0 0:730 
-0 -0 -0 -0 -0 -0 -0 -0 -0 -0.01937097723562582 -0 0 0 0 0 0 0.09974272329786231 0 0 0 0 0 0 0 0 0 0.2920929475511025 0 0 0 0 0 0 0 0 0 0:733 
-0 -0 -0 -0 -0 -0 -0 -0 -0 -0 -0.1557496126554443 0 0 0 0 0 0.03487773483683855 0 0 0 0 0 0 0 0 0 0 0 0 0 0 0 0 0 0 0 0:745 
-0 -0 -0 -0 -0 -0 -0 -0 -0 -0.01576894262874365 -0 0 0 0 0 0 0 0 0 0 0 0 0 0 0 0 0 0 0 0 0 0 0 0 0 0 0:746 
-0 -0 -0.1791211754748875 -0 -0 -0 -0 -0 -0 -0 -0 0 0 0 0 0 0 0 0 0 0 0 0 0 0 0 0 0 0 0 0 0 0 0 0 0 0:747 
-0.1641326384151804 -0 -0 -0 -0 -0 -0 -0 -0 -0 -0 0 0.1048455076634556 0.221077703519358 0 0 0 0 0.02067531934620643 0.06621209965707509 0 0.2262255833010781 0 0.1379889661426119 0.1358089860841986 0 0 0 0 0 0.01482457739742637 0 0 0 0.007107244331635972 0 0:754 
-0.1163155728963427 -0 -0.03882602039298615 -0 -0 -0.1032620165165946 -0 -0 -0.2118183417675314 -0.1068917142849631 -0.02759196186089332 0.5511044659143047 0.179008382734534 0.1996283098762518 0.2159495184486059 0.18390515875708 0.1447926160954233 0 0 0 0 0.07920845107672407 0.05390769049507197 0 0.06119659148450789 0.2498538294226785 0.1244440222455417 0.2741820565056109 0.1928772420062954 0 0 0 0 0 0 0 0:755 
-0.03903615768839026 -0 -0 -0 -0 -0 -0 -0 -0 -0 -0 0 0 0 0 0 0 0 0.04831585456422463 0.02755275888008848 0 0 0 0 0.1316995327380981 0 0.01915134832784338 0 0 0 0.1488195534026236 0 0 0 0 0 0:756 
-0 -0 -0 -0 -0 -0 -0 -0 -0 -0 -0 0 0 0 0.1012551663065393 0.07388209585013668 0 0.08874555752997736 0 0 0.1103606650118733 0.05921013626572967 0 0 0 0 0 0.1828900827888728 0 0 0 0 0.1189107475915268 0.01469222878877273 0 0 0:757 
-0 -0 -0.3238459595653341 -0 -0 -0 -0.0940055589961778 -0 -0.02257653308130188 -0.009607378672547484 -0 0 0 0 0 0 0 0 0 0 0 0 0 0 0 0 0 0 0 0 0 0 0 0 0 0 0:758 
-0 -0.02030949715802183 -0 -0 -0.06618682719822791 -0 -0 -0 -0 -0 -0.1169630791026389 0 0 0 0 0 0 0 0 0 0 0 0 0 0 0 0 0 0 0 0 0 0 0 0 0 0:759 
-0 -0 -0 -0 -0.0398165331344535 -0 -0 -0 -0 -0 -0 0 0 0 0 0 0 0 0 0 0 0 0 0 0 0 0 0 0 0 0 0 0 0 0 0 0:760 
-0 -0 -0 -0 -0 -0 -0 -0 -0 -0 -0 0 0 0.001514297363528548 0 0 0 0 0 0 0 0 0 0.03426695965633204 0 0 0 0 0 0 0 0 0 0 0 0 0:761 
-0 -0.04578177674467605 -0 -0 -0 -0 -0 -0.1002791495372774 -0 -0 -0 0 0 0 0 0 0 0 0.01087743929862774 0.1102458892324757 0.06770855403412473 0 0 0 0 0 0 0 0 0.03994854169296622 0 0 0 0 0 0.3794554991075372 0:762 
-0 -0 -0 -0 -0 -0 -0 -0.07784845704135566 -0.05516291949497378 -0.02861344373629537 -0 0.04118156690998215 0 0 0.02186346638363312 0.006275788669953247 0 0 0 0 0 0 0 0 0 0.0151090319318188 0 0 0 0 0 0 0.2101968710531959 0.20667819929412 0 0 0:764 
-0 -0.05764577265678072 -0.08138385969562308 -0 -0 -0 -0 -0.1684229806996372 -0 -0.05475080251282406 -0 0 0 0 0 0 0 0 0.1660471125663583 0.1455189097904706 0 0 0.2182937199032068 0.07934661505132984 0 0 0 0.08088367973395222 0 0 0 0.02140753759764547 0 0 0.08997973725013689 0.2093923805077583 0:765 
-0.01763507837923505 -0.005115481058231858 -0 -0 -0 -0 -0 -0 -0 -0 -0 0 0.01157145853560528 0 0 0 0 0 0 0.06735473684590446 0 0 0 0 0.09163442958194265 0 0 0 0 0 0 0 0 0 0 0 0:766 
-0 -0 -0 -0 -0 -0 -0 -0 -0.1923190919041521 -0 -0 0 0.07986970483068398 0 0 0 0 0 0.07165702098895867 0 0 0 0 0 0 0 0 0.05295986168092728 0 0 0 0 0 0 0 0 0:767 
-0 -0.01795848483237981 -0 -0 -0 -0 -0 -0 -0 -0 -0 0 0 0 0 0 0 0 0 0 0.01289737281033014 0.004026364805647643 0 0 0 0 0 0 0 0 0 0 0 0.02185882903993077 0 0 0:768 
-0 -0.02498727192892534 -0 -0 -0 -0 -0 -0 -0 -0 -0 0 0 0 0 0 0 0 0 0 0 0 0 0 0 0 0 0 0 0 0 0 0 0.04683059549748308 0 0 0:769 
-0 -0 -0.02563156158397061 -0.1040465146976606 -0.2169607561253533 -0.1825167036094643 -0.1961973644070354 -0 -0.1548525459283141 -0.005210565358834854 -0.124769347157347 0 0 0 0 0 0.04315963446037641 0 0 0 0.08087306999427479 0 0 0 0 0 0 0 0.1822460871805619 0 0 0 0 0 0 0.01664944360476115 0:770 
-0 -0 -0 -0 -0 -0 -0 -0 -0.003204498662697197 -0 -0 0 0 0 0 0 0 0.291038862067362 0 0 0 0 0.008793630477034022 0.05914880369700659 0 0 0 0 0 0 0.1921887452998494 0 0.2707735123018402 0 0 0 0:772 
-0 -0 -0 -0 -0 -0 -0 -0 -0 -0 -0 0 0 0 0 0 0 0 0 0 0 0 0 0 0 0 0 0 0 0 0.04587015010931775 0 0 0 0 0 0:773 
-0 -0.02967711999358976 -0.1200085438128486 -0.3375229846755857 -0.2004859498700687 -0.0691458304193124 -0.4277348089306858 -0 -0.241419986316043 -0.08850203400873481 -0 0.1659580588504683 0 0 0.1065277687369061 0.1802622014972939 0.07282321243027895 0.1474922013658063 0 0.01712680955315378 0 0 0 0 0 0.08114649181421252 0 0 0.05966914409734921 0 0 0 0 0 0 0 0:775 
-0 -0 -0 -0 -0 -0 -0 -0 -0 -0 -0 0 0 0 0 0 0 0 0 0 0 0 0 0 0.005933129732354043 0 0.1860324406374058 0 0 0 0 0 0 0 0 0 0:777 
-0 -0 -0 -0 -0 -0 -0 -0 -0 -0 -0 0 0 0 0 0 0 0 0 0 0 0 0 0 0 0 0 0 0 0 0 0 0 0.00475505832687923 0 0 0:781 
-0.07201609227463578 -0 -0 -0 -0 -0 -0 -0 -0 -0 -0 0 0 0 0 0 0.02459332442195751 0 0 0 0 0 0.002229062999483905 0 0.1339324653903806 0 0 0 0 0 0 0 0 0 0 0 0:782 
-0 -0.06407980129092841 -0 -0 -0 -0 -0 -0 -0 -0 -0 0 0 0.02064751489448411 0 0 0 0 0.05489287417006918 0 0 0 0 0.04806161378046166 0.1953590255520388 0 0.07946626008269289 0 0 0.03988108475116951 0 0 0 0.04205844485697076 0.1734436737674322 0 0:783 
-0 -0 -0 -0 -0 -0 -0 -0 -0 -0 -0 0 0 0 0 0 0 0 0 0 0 0 0.1650161524829348 0 0 0 0 0 0 0 0 0.07547339975437664 0 0 0 0 0:784 
-0 -0 -0 -0 -0 -0 -0 -0 -0 -0 -0 0 0 0 0 0 0 0 0 0 0.1743213381125807 0 0 0 0 0 0 0 0 0 0 0 0 0.1270171605324435 0 0 0:785 
-0 -0 -0 -0 -0 -0 -0 -0 -0 -0 -0 0 0 0 0 0 0 0 0 0 0 0 0 0 0.1312255273993239 0 0.01363625971272392 0 0 0 0 0 0 0 0 0 0:786 
-0 -0 -0 -0 -0 -0 -0 -0 -0 -0 -0 0 0 0 0 0 0 0 0 0 0 0 0 0 0 0 0.02851557883836452 0 0 0 0 0 0 0 0 0 0:787 
-0 -0 -0 -0 -0 -0 -0.09212083393590587 -0 -0 -0 -0 0 0 0 0 0 0 0 0 0 0 0 0 0 0 0 0 0 0 0 0 0 0 0 0 0 0:791 
-0 -0 -0 -0 -0 -0 -0 -0 -0.0391739704079994 -0 -0 0.00274942166898755 0 0 0 0.001834398555311842 0 0.04611106500757723 0 0 0 0.0191578184955423 0 0 0 0.1075550887911512 0 0 0 0 0 0 0 0 0 0 0:792 
-0 -0 -0 -0 -0 -0 -0 -0 -0 -0 -0 0 0 0 0 0.02528602143566615 0 0 0 0 0 0 0 0 0 0 0 0 0 0 0 0 0 0 0 0 0:793 
-0.4254175506739163 -0 -0 -0 -0 -0 -0 -0 -0 -0 -0 0 0 0.1277399622411231 0 0 0 0 0 0 0 0 0 0 0 0 0 0 0 0 0.05432292619483291 0 0 0 0 0 0:794 
-0.1799569411173297 -0 -0 -0 -0 -0 -0 -0 -0 -0 -0 0 0 0 0 0 0 0 0 0 0 0 0 0 0 0 0 0 0 0 0 0 0 0 0 0 0:795 
-0 -0 -0 -0 -0 -0 -0 -0 -0 -0 -0 0 0.1753434217739988 0.2883885554940064 0 0 0 0 0.1923393191602919 0 0 0.02820402171500508 0.3673675127505345 0 0.074285241857867 0 0 0 0 0.09628750505824227 0.06037402669975252 0.06975030628053402 0 0.01978140155705973 0 0 0:798 
-0 -0 -0 -0 -0.1823442235934638 -0.01092884876527277 -0 -0 -0 -0.06905136526377471 -0 0 0.1242565060505878 0 0.05956191426448613 0 0 0 0.04692455365237904 0.03228257227975154 0 0.152880551677723 0 0 0 0 0 0 0.1413117494062212 0 0.09819627667368211 0.04949541889518747 0 0 0 0 0:799 
-0.286529984720311 -0.03893185579314822 -0 -0.2288409616171077 -0.4621599619163133 -0 -0 -0.1313391217609378 -0 -0.04956078973158074 -0.05585977636653674 0.04990007275948487 0.2562663766152306 0.06443756177352547 0.03198111693226757 0.01686846891946023 0.1252279519709239 0 0.4653471584214715 0.05068668458940464 0 0.2114974283588994 0.450941005922629 0.1943858912520874 0.2078267687015786 0 0 0 0 0.1475513049384193 0.08348896857393753 0.06443791554753092 0 0.1201594849565872 0.09321705805059624 0.05042348251700161 0:800 
-0 -0 -0 -0 -0.03701071421420671 -0.1601631651829102 -0 -0 -0.1017063952599477 -0.1192850312489764 -0 0.1770259391515029 0 0 0.05856699979385488 0.01605973227651638 0 0.1741126217010479 0 0 0.01055952703424529 0 0 0 0 0.1560575597960975 0 0.2341409810644849 0 0 0 0 0.2418138888353626 0.04409253285520583 0 0 0:801 
-0 -0 -0 -0 -0 -0 -0 -0 -0 -0 -0 0 0 0 0 0 0 0 0 0 0 0 0 0 0 0 0.008611434647293071 0 0 0 0 0 0 0 0 0 0:806 
-0.1519310192448635 -0.2264985208738122 -0 -0 -0 -0 -0 -0 -0 -0 -0 0 0 0.03774208019858378 0 0 0 0 0.2258711391594726 0 0.01616363993674975 0 0.5578397789058989 0.356423215603945 0.06919230650963293 0 0 0 0 0.267522691728707 0.1214892662180462 0.3708593797974266 0.09498843265439508 0 0.0755514718544321 0 0:807 
-0 -0 -0 -0 -0 -0 -0 -0 -0 -0 -0 0 0 0 0 0 0 0.005003103439017227 0 0 0 0 0 0 0 0 0.1202973700707854 0 0 0 0 0 0 0 0 0 0:808 
-0 -0 -0 -0 -0 -0 -0 -0 -0 -0 -0 -0 0 0 0 0 0 0 0 0 0 0 0 0 0 0.1053331366429104 0 0 0 0 0 0 0 0 0 0 0:811 
-0 -0 -0 -0 -0 -0 -0 -0 -0 -0 -0.04963844032385202 -0 0 0 0.683295374315665 0.1411637957825834 0 0.1081487082476675 0 0 0.002389474490855646 0 0 0 0 0 0 0 0 0 0 0 0 0 0 0 0:812 
-0 -0.1803880898869635 -0.433521032821741 -0.4395569735476237 -0 -0.948647104307019 -0 -0.1311882381277716 -0 -0.2642403810887347 -0.1179828231770689 -0 0 0 0.4435559516371229 0 0 0 0.01402620127271461 0.1371786692284883 0 0 0 0 0 0 0 0 0.6175777667032212 0.0233944188840143 0 0 0 0 0 0.2223564171708985 0:813 
-0 -0 -0 -0 -0 -0 -0 -0 -0.3525213086715096 -0 -0 -0.1918671662095753 0 0 0 0.4259943071492169 0 0.4401789364376837 0.01253452591098011 0 0.01224243056923116 0 0.2410947132814344 0.05425191821237464 0 0.1633901122940837 0 0.3601346616770422 0 0.04174992438447331 0 0 0.1988305839776283 0 0.005796191087505309 0 0:814 
-0 -0 -0 -0 -0.05415356190029728 -0 -0 -0 -0.007259235197351885 -0 -0.03977277506328022 -0.1938476992240667 0.02313185372763909 0 0.1267151618098366 0 0 0.7411379785543203 0.0115948660872794 0.01828124650581256 0.07030911131898568 0.08933139733504898 0 0.006114293072160587 0 0 0 0 0 0 0.09649186804441724 0 0 0 0 0 0:816 
-0 -0 -0 -0 -0 -0 -0 -0 -0 -0.02337934304087673 -0 -0 0 0.05668265727118645 0 0.08261789425352392 0 0.225829142221453 0 0 0.09238017972603864 0 0 0 0 0.2517330421227328 0.05417450376108725 0 0 0 0.0465832098375521 0.08229165943495483 0.2861658665697558 0 0.06170193455501964 0 0:817 
-0 -0 -0 -0 -0 -0 -0.02203838213086188 -0 -0 -0.1762375543572729 -0 -0 0 0 0.9816285051362874 0.2381170638078579 0.01765417961900824 0 0 0 0 0 0 0 0 0 0.01750199549409366 0 0.302698215073422 0 0 0 0 0 0 0 0:818 
-0.3914278150860344 -0.2172040919814037 -0.1292371370812974 -0.4743213729091564 -0.3588775907456086 -0 -0.4969770522609582 -0.2289356560226245 -0.4857802512453916 -0.3926318148249586 -0.2499382816118108 -0.5327940986349652 0.3908441573445831 0.5002332113578783 0 0.207753670791778 0.2488466319994156 0.02295040236947962 0.5377282181139302 0.2445645960245285 0.178969043229005 0.1770301083221265 0.748539291193449 0.6010051967827901 0.4172704294311724 0.08291515253451998 0.433077671324909 0.5020389901365004 0.6214985042283185 0.3026495976632872 0.2483856260911144 0.3803843147465104 0.3553361688297467 0.4309783281113726 0.3469859668588025 0.1938306046063921 0:819 
-0 -0 -0 -0 -0 -0.3353491981214704 -0 -0 -0.07981294094210908 -0 -0 -0 0 0.07569818755973794 0 0 0 0 0 0 0 0 0 0 0 0 0 0 0 0 0 0 0 0.07147006145258164 0 0 0:820 
-0.1309550622333015 -0 -0.1486464456119248 -0 -0.1782486315867986 -0 -0 -0.08114641204584028 -1.387281708487652 -0 -0 -0.06941056118612349 0.1923161615388487 0 0.2934962661513472 0.07362155946072559 0.3846927043474522 0 0 0 0 0.2103924506546428 0.002720078597377441 0 0.03590334624375179 0.4425567922926816 0.0874525636162146 0 0 0 0 0 0.002594998673309438 0 0 0 0:821 
-0 -0 -0 -0.1087026124765976 -0 -0 -0 -0 -0 -0.1328074307656563 -0 -0 0 0 0 0 0 0.2103146506291581 0 0 0 0 0 0 0 0.08877078126888978 0 0.3621588224005964 0.04835445114904473 0 0 0 0.03347697917264765 0 0 0 0:822 
-0 -0.004603191956807104 -0.2376930229680388 -0.2491099855205321 -0.09015397839250387 -0.4014078744720919 -0.2368632574879231 -0 -0.2950434146650266 -0.04550723680168282 -0.2365030642373915 -0 0 0 0 0 0 0 0 0 0 0 0 0 0 0 0.05332456075246753 0 0.05720119924812139 0 0 0 0 0 0 0.02485001716933495 0:823 
-0.1594831866948563 -0.0310839518711268 -0 -0 -0 -0 -0.2252233723511695 -0.007014372208997846 -0.2045317727307039 -0 -0 -0 0.07974193590407355 0.02611687956146653 0 0 0.3018354404744359 0 0.02643051736831212 0 0 0 0 0 0.1940319515692141 0 0.0544152342243963 0 0 0 0 0 0 0.042279297559887 0 0.01755484411584989 0:824 
-0 -0 -0 -0 -0.01365972202979741 -0 -0 -0 -0 -0 -0 -0 0 0 0 0 0 0 0 0 0.04290029085092105 0 0 0 0 0 0 0.04597815420017114 0 0 0 0 0 0 0 0 0:825 
-0 -0 -0.01629959258160412 -0 -0 -0.2769702193524334 -0 -0 -0 -0 -0 -0 0 0 0.3905289662569916 0.07921096815159556 0 0 0 0 0 0 0 0 0 0.3465550061187467 0 0 0.2030043034315876 0 0 0 0 0 0 0 0:826 
-0 -0 -0 -0 -0 -0 -0 -0 -0 -0 -0 -0 0 0 0 0.3032289903641488 0 0 0 0 0 0 0 0 0 0.5829349022940811 0 0 0 0 0 0 0 0 0 0 0:827 
-0 -0 -0 -0 -0 -0 -0 -0 -0.02433124325778699 -0 -0 -0 0 0 0 0 0 0 0 0 0 0 0 0 0 0 0 0 0 0 0 0 0 0 0 0 0:829 
-0 -0 -0 -0 -0 -0 -0 -0 -0 -0.01514291284657488 -0 -0 -0 0.01106889278038388 0 0 0 0 0 0 0 0 0 0 0 0 0 0 0 0 0 0 0.0987711387809616 0 0 0 0:835 
-0 -0 -0 -0 -0 -0 -0 -0 -0 -0 -0 -0 -0 0 0 0 0 0 0 0 0 0 0 0 0 0 0.07211321064423257 0 0 0 0 0 0 0 0 0 0:837 
-0 -0 -0 -0 -0 -0 -0 -0 -0 -0 -0 -0 -0 0 0 0 0 0 0 0 0 0.2094018570774897 0 0 0 0 0 0 0 0 0 0 0 0 0 0 0:840 
-0 -0 -0 -0 -0 -0 -0 -0 -0 -0 -0 -0 -0 0 0 0 0 0 0 0 0 0 0 0 0 0 0 0 0 0 0 0.02493140262617004 0 0 0 0 0:850 
-0 -0 -0 -0 -0.1041626924171312 -0 -0.4027323371249067 -0 -0 -0.09321535570364703 -0.0006418406234037489 -0.05820553209653891 -0 0 0 0 0 0 0 0.09959986780882508 0.0368344963565452 0 0.02520129580080387 0 0 0 0 0 0 0 0 0 0 0 0 0 0:851 
-0 -0 -0.03909352401541733 -0 -0 -0 -0 -0 -0.09335520037454714 -0 -0 -0 -0.1420441601235812 0 0 0 0 0 0 0 0 0 0 0 0.006219527047541524 0 0 0 0 0 0 0 0 0 0 0 0:852 
-0 -0 -0 -0 -0 -0 -0 -0 -0 -0.05444126362592731 -0 -0 -0 0 0 0 0.09158577869374722 0 0 0 0 0 0 0 0.164123491183579 0 0.07782929398327862 0 0 0 0 0 0 0 0 0 0:853 
-0 -0 -0 -0 -0 -0 -0 -0 -0 -0 -0 -0 -0 0 0 0 0.07524581443370922 0 0 0 0 0 0 0 0 0 0 0 0 0 0 0 0 0 0 0 0:854 
-0.2972234489924616 -0 -0.03203633258499922 -0 -0 -0.09000712227011916 -0 -0 -0.2663830433550174 -0 -0 -0 -0.08000595831413604 0 0.4062135724619881 0.09105507740107108 0.04071997293706088 0 0 0.01719893120127333 0 0.08217779095351123 0.01226532057093536 0 0 0 0 0 0.0275413960231787 0 0 0 0.02374416978009845 0 0 0.01372562766414109 0:859 
-0 -0.2504301639381949 -0.2123050770238426 -0.1277853407507237 -0.07591294483098614 -0.1547959750858648 -0.1020837278053191 -0.1894435115150095 -0 -0 -0.3383762413459552 -0 -0 0 0 0.03967689060284638 0.6154841992384892 0 0 0.05211349978841415 0.05160196578596642 0 0 0.08169055907242644 0 0 0 0.01068617979202637 0.2248613458466613 0 0 0 0.002937357174367738 0.02592731322083599 0 0.1940722661058586 0:860 
-0 -0 -0 -0 -0 -0.04399304736667191 -0 -0 -0 -0.01963883995252762 -0 -0 -0 0.02735938814992404 0 0 0.1451833168211069 0 0 0 0 0 0 0 0.2895204084337782 0.03589507426485815 0.2355960566956537 0.02142939119007853 0.04429971299365222 0 0 0 0 0 0 0 0:861 
-0 -0 -0 -0 -0 -0 -0.0398481060581194 -0 -0 -0 -0.09316402396146646 -0 -0 0 0 0 0 0 0 0 0 0 0 0 0 0 0 0 0 0 0 0 0 0 0 0 0:862 
-0 -0 -0 -0 -0 -0 -0 -0 -0 -0 -0 -0.04938001494085533 -0 0 0 0 0 0 0 0 0.004424059802888257 0.002655978229007021 0 0 0 0 0 0 0 0 0 0 0 0 0 0 0:863 
-0 -0 -0 -0 -0 -0 -0 -0 -0 -0 -0 -0 -0 0 0 0 0 0 0 0 0 0.06277166457218601 0 0 0 0 0 0 0 0 0 0 0 0 0 0 0:867 
-0.3395054006691002 -0 -0 -0 -0 -0 -0 -0 -0 -0 -0 -0.06369351900341286 -0 0.3692550862925539 0 0.03927986227863112 0 0.01605826613328046 0 0 0 0.04422044806767096 0.01473475096855108 0 0 0.003688912034521273 0 0 0 0 0 0 0 0 0 0 0:868 
-0 -0 -0 -0.05952461930002417 -0 -0 -0 -0 -0 -0 -0 -0 -0 0 0 0 0 0 0 0 0 0 0 0 0 0 0 0 0 0 0 0 0 0 0 0 0:869 
-0 -0 -0.027032871203902 -0.08858157387795036 -0.02233049091438799 -0 -0 -0.05302536753005944 -0.08422845623382878 -0 -0.03074538844040662 -0.006986044775926836 -0 0 0 0 0 0 0 0 0.01956755465534811 0 0.1045208737156853 0 0 0 0 0 0 0 0 0 0 0.01669918098005118 0 0.1546170541231232 0:870 
-0.1971154665052653 -0.02904569856968358 -0.08998089278707899 -0.1301344110614713 -0.3245764499333275 -0.1360932568607719 -0.1099703376878189 -0.03607178616891418 -0.1893446206570477 -0.2498496808253098 -0.09722919454646931 -0.3593522115835556 -0.2370617392179222 0.2869317903569917 0.2409374423249834 0.1554001840255202 0.3513245756400541 0.1931817251852942 0.2246436336341086 0.1443853203295133 0.1436471131990118 0.9811909811602619 0.3033047026842095 0.1950566575559504 0.2578411364323897 0.2669130040499101 0.2218603077172309 0.2286592470566622 0.2467068914173967 0.1160855546762771 0.3414902080080177 0.2827325017601767 0.2649794690851444 0.1540743216526887 0.1684532886097976 0.04928627361053433 0:871 
-0 -0 -0 -0 -0 -0 -0 -0 -0 -0.03122337278401428 -0 -0 -0 0.09621227050369201 0 0 0 0 0 0 0 0 0 0 0 0 0 0 0 0 0 0 0 0 0 0 0:872 
-0.006703224782232996 -0 -0 -0 -0 -0 -0 -0 -0 -0 -0 -0 -0 0 0 0 0 0 0 0 0 0 0 0 0.2081440393544992 0 0 0 0 0 0 0 0 0 0 0 0:873 
-0.2327094321484047 -0 -0 -0 -0 -0 -0 -0 -0 -0 -0 -0 -0 0 0 0 0 0 0 0 0 0 0 0 0.3479175855254351 0 0 0 0 0 0 0 0 0 0 0 0:874 
-0 -0 -0 -0 -0 -0 -0 -0 -0 -0 -0 -0 -0 0 0 0 0 0 0 0 0 0 0 0 0 0 0.05995624448443491 0 0 0 0 0 0 0 0 0 0:880 
-0 -0 -0 -0 -0 -0 -0 -0.08531876953669872 -0.06991911456579065 -0 -0 -0 -0.1177210346114643 0 0.1972955597119568 0.1197145344235023 0 0.1266027142904567 0 0 0.1487621512178514 0 0.03234696226083895 0 0 0.2231972135637622 0 0.2797771149838152 0 0 0 0 0.02166906121627143 0.0168168988651666 0 0 0:882 
-0 -0 -0 -0 -0 -0 -0 -0 -0 -0 -0 -0 -0 0 0 0 0 0.03809618452768004 0 0 0 0 0 0 0 0 0 0 0 0 0.238592331365227 0 0.01511212058424903 0 0 0 0:883 
-0 -0 -0 -0 -0.04073999430530225 -0.03312086315259404 -0.02215072865999708 -0 -0 -0 -0 -0 -0 0 0 0 0 0 0 0 0 0 0 0 0 0 0 0 0 0 0 0 0 0 0 0 0:884 
-0.03218616345729147 -0.2102718830682719 -0 -0 -0.2410768887814897 -0 -0 -0.08688616216375972 -0 -0 -0.03314220988527837 -0.3650754463913384 -0 0.08943127086452889 0 0 0 0.01487695840211627 0.7598594964027761 0.05888738949439574 0.03254209264837785 0.3534994622178071 0.3218570854025759 0.2220207493505251 0.07183386827734937 0 0 0 0 0.572032098864564 0 0.2848464688060953 0.05238152095869827 0.08101355139412748 0.2648722964110103 0.08308802427480344 0:885 
-0.5367814646928276 -0 -0 -0 -0 -0.02335802259174174 -0 -0 -0 -0 -0 -0 -0 0.3892801963125775 0 0 0 0 0.02363147475851677 0 0 0.01462895151765349 0 0 0.2633876766119772 0 0 0 0 0 0.1438801210297272 0 0 0 0 0 0:886 
-0 -0 -0.1011609731984316 -0.1412681634970258 -0.009001258403546228 -0.08514215837947609 -0.1664221430206162 -0 -0.0637711731593479 -0.06329616051434349 -0.07235118810777104 -0.02846858941246809 -0.1092012162480406 0 0 0 0 0 0.01048638795211206 0 0 0 0 0.04926254189668014 0 0 0 0 0.09861593227526887 0 0 0 0.06367950682097202 0.19152028696594 0.02505759812725196 0 0:887 
-0 -0 -0 -0 -0 -0 -0 -0 -0 -0 -0 -0 -0 0 0 0 0.01307519192774626 0 0 0 0 0 0 0 0 0 0 0 0 0 0 0 0 0 0 0 0:889 
-0 -0 -0 -0 -0 -0 -0 -0 -0 -0 -0 -0 -0 -0 0 0 0 0 0 0 0 0 0 0 0 0 0 0 0 0.04304385422601276 0 0 0 0 0 0 0:895 
-0 -0.172862766947532 -0.2020358380702673 -0.1619184824948064 -0.02622243147577005 -0.2487340347804625 -0.09355681831565131 -0.2091592548858169 -0.05338139690947077 -0.134067536075593 -0.1424065565495918 -0.1066869960137797 -0.1476330718534537 -0.4114368763484711 0.1283099136185201 0.1229419328359039 0.2637044480712267 0 0.08313452383128186 0.06951647470551518 0.0453798241365696 0 0.05160835727058601 0.05820505321574176 0.469848869608693 0.06803449704224214 0.09355204149601287 0.05641112180328175 0.2298405048165779 0.1578360964807327 0 0 0.08322298002915655 0.05429587765623373 0.08051579914139942 0.1869129344250615 0:897 
-0 -0 -0 -0 -0 -0 -0 -0 -0 -0 -0 -0.1253473553442154 -0 -0 0 0 0 0 0 0.08516350881842552 0 0 0 0 0 0.01343905022664003 0 0 0 0 0.06853295628329073 0 0 0 0 0 0:898 
-0 -0 -0 -0 -0 -0 -0 -0 -0 -0 -0 -0 -0 -0 0 0 0 0 0 0 0 0 0 0.02171447476750435 0 0 0 0 0 0 0 0 0 0 0.06316641704638543 0 0:899 
-0 -0 -0 -0 -0 -0 -0 -0 -0 -0 -0 -0 -0 -0 0.002703299321450965 0 0 0 0 0 0 0 0 0 0 0.0429527281480301 0 0 0 0 0.02879457599936541 0 0 0 0 0 0:900 
-0 -0.0375756512724638 -0 -0 -0 -0 -0 -0 -0 -0 -0 -0 -0.04420910732974696 -0 0.01599826194855237 0.06663765245308026 0 0.1720814755012446 0 0 0 0 0 0.1094220646816346 0 0 0 0.1180822487294303 0 0 0 0 0.2079902628639989 0.04412628561081126 0.03584583553090249 0 0:901 
-0.04852737307524277 -0 -0.003059123739745896 -0 -0 -0.1362383894883469 -0 -0 -0.1223065888914046 -0.02249095745071086 -0 -0 -0.06871881580757354 -0 0.09473641050475141 0.09704210180139183 0 0.1154685472312961 0 0 0.09605922456000646 0 0 0 0 0.07290048254412405 0 0.1249099834513772 0.02295002470888926 0 0.0940035082610256 0.04487207906465983 0.2389015317733513 0.02002263190958036 0.004335792530618721 0 0:902 
-0 -0 -0 -0 -0 -0 -0 -0 -0 -0 -0 -0 -0 -0 0 0.05709206809542752 0 0 0 0 0.01637393747447751 0.004469765255327105 0.04576189569239872 0 0 0 0 0 0 0 0 0.06354416697616193 0 0 0 0 0:903 
-0.5756516293913807 -0 -0 -0.07968469176384683 -0.1720111833657798 -0 -0.2834440456382624 -0.07986655397166327 -0.1032348024548037 -0 -0.2008822197310414 -0.3454696399761535 -0.2398875464123349 -0.7253720448310925 0.1023519283414438 0.01597620478628858 0.2639398439643437 0.00535098285022918 0.2001841823100149 0 0.1362872863966341 0.3816983618177877 0.3302826786884851 0.01097398463157033 0.5816773780363794 0.05702196864271031 0.1026161258011973 0.08857907223469066 0.07174725743118755 0.1591390705094887 0.06321272997716178 0.1855809965252637 0 0.1567123885762268 0.1257333503163091 0.08565926525598187 0:904 
-0 -0 -0 -0 -0.03826422908349465 -0.1000978932877271 -0 -0 -0 -0.07059303680066366 -0 -0 -0 -0 0 0 0 0 0 0 0 0 0 0 0 0 0 0 0.0004426671716707044 0 0 0 0 0 0 0 0:907 
-0 -0 -0.02434590826356349 -0 -0 -0.02196623349654015 -0 -0 -0.07929903108644695 -0 -0 -0 -0 -0.1327299740810884 0.05482537757991168 0 0 0 0 0 0 0.05812091666447809 0 0 0 0.1000951303735366 0 0 0 0 0 0 0 0 0 0 0:908 
-0.7956540114959864 -0 -0 -0 -0 -0 -0 -0 -0 -0 -0 -0 -0 -0 0 0 0 0 0.1125243869162076 0.01218464632808846 0 0.002786575621352567 0 0 0.3302777672321705 0 0 0 0 0 0.2935302804403486 0.2207735009645483 0 0 0 0 0:909 
-1.280483166333439 -0.1990823742442005 -0.1364325146509265 -0.1868796516419854 -0.263464663104196 -0 -0.1077086210022562 -0.06477348098102746 -0.20035431200977 -0.2223374283719527 -0 -0.1412769095047952 -0.1582823943471602 -0 0.0193548020994569 0 0 0 0.1109113410974007 0.1589236001150177 0 0 0.09348046217383268 0.194772788300157 0.4023901001914786 0.03353264644582262 0.2631100203168663 0.02638049646510148 0.07255736817948331 0.02363780806082907 0 0 0 0.1166779293633749 0.03409797897486835 0.06020773663421695 0:910 
-0 -0 -0 -0 -0 -0 -0 -0 -0 -0 -0 -0 -0 -0 0 0 0 0 0 0 0 0.04657498021149879 0 0 0 0 0 0 0 0 0 0 0 0 0 0 0:913 
-0 -0 -0 -0 -0 -0 -0 -0 -0 -0 -0 -0 -0 -0 0 0 0 0 0 0 0 0.2353032527401313 0.02542324045351141 0 0 0 0 0 0 0 0 0 0 0 0.04097367932456588 0 0:914 
-0 -0 -0 -0 -0 -0 -0 -0 -0 -0 -0 -0 -0 -0 0 0 0 0 0 0 0 0 0.07850380721012833 0 0 0 0 0 0 0 0 0 0 0 0 0 0:915 
-0 -0 -0 -0 -0 -0 -0 -0 -0 -0 -0 -0.2423950845219174 -0 -0 0 0 0 0.09231552026817731 0.2356542421084962 0.03089149163964369 0.004205506239160035 0 0.3036757831156952 0.1890497634861882 0.2110984551979061 0.02767793189937999 0.1566928155300341 0.05706913982490051 0 0.03084797942846625 0.2617111954114063 0.05714709875810804 0.05638160841800903 0.02591198152585525 0.006885636051499285 0 0:916 
-0 -0 -0 -0 -0 -0 -0 -0 -0 -0 -0 -0 -0 -0 -0 1.103022801675868 0 0 0 0 0 0 0 0 0 0.2612618376367081 0 0.362010244054229 0 0.0439823976895233 0 0 0.199452740032075 0 0.05749041479387122 0 0:920 
-0 -0 -0 -0 -0 -0 -0 -0 -0 -0 -0 -0 -0 -0 -0 2.32524302117643 0 0.3327507484382718 0 0 0 0 0 0 0 0.4429870315472951 0 0 0 0 0 0 0 0 0 0 0:921 
-0 -0 -0 -0 -0 -0 -0 -0 -0 -0 -0 -0 -0 -0 -0 0 0.1037804461720291 0 0 0 0 0 0 0 0 0 0 0 0 0 0 0 0 0 0 0 0:930 
-0.1262144787320474 -0 -0 -0 -0 -0 -0 -0 -0 -0 -0 -0 -0 -0.1959814267927545 -0.1465636506990506 0 0 0 0 0 0 0.01562755420334318 0 0 0.07474879184285943 0 0 0 0 0 0 0 0 0 0 0 0:937 
-0 -0 -0 -0 -0 -0 -0 -0 -0 -0 -0 -0 -0 -0.2676843601613558 -0 0 0 0 0 0 0 0 0 0 0.1619978836203754 0 0 0 0 0 0 0 0 0 0 0 0:939 
-0 -0 -0 -0 -0 -0 -0 -0 -0 -0 -0 -0.02474452770880869 -0 -0 -0 0 0.06836623056256408 0 0 0 0 0 0 0.03821348424761473 0 0 0.09469835526414884 0 0 0 0 0.04654200462418596 0.07375652285662337 0 0 0 0:940 
-0 -0 -0 -0 -0 -0 -0 -0 -0 -0 -0 -0 -0.2303796958491915 -0 -0 0 0 0.1790632227829119 0 0 0 0 0 0.01878087810119136 0 0 0 0 0 0 0 0.0207197579488132 0.1420183443141975 0 0 0 0:942 
-0 -0 -0 -0 -0.1018885216546896 -0 -0 -0 -0 -0.04760930050131019 -0 -0 -0 -0 -0 0 0 0 0 0 0 0 0.1661910708529518 0 0 0 0 0.03225326926011881 0.1198927092828397 0 0 0 0 0 0 0 0:943 
-0 -0.09534667343613928 -0.3563141169466776 -0.3308669033507406 -0.165402558979354 -0.4579519552792778 -0 -0 -0 -0.3312200455572859 -0.2658398282441344 -0 -0.4984647959743219 -0 -0 0 0.004588309804424737 0 0 0.05166889779007644 0 0 0 0.06733680579566678 0 0 0 0 0.7425230260058046 0 0 0 0 0 0 0.1413745158616635 0:952 
-0 -0 -0 -0 -0 -0 -0 -0 -0 -0 -0 -0 -0 -0 -0 0.2105552546898138 0 0 0 0 0 0 0 0 0 0 0 0 0 0 0 0 0 0 0 0 0:955 
-0 -0 -0 -0 -0.02656898703463918 -0 -0 -0 -0 -0 -0 -0.08421646257121704 -0.07088472411879219 -0 -0.04938513273273765 0 0 0.08589455292405893 0 0 0.04053760857471584 0 0 0 0 0.2258868962041487 0 0 0 0 0.01066001300790738 0 0 0 0 0 0:957 
-0 -0 -0 -0.03230009570689285 -0 -0 -0 -0 -0 -0 -0 -0 -0 -0 -0 0 0 0 0 0 0 0 0 0 0 0 0 0 0.06006424554706383 0 0 0 0 0 0 0 0:958 
-0 -0 -0 -0 -0 -0 -0 -0 -0 -0 -0 -0 -0 -0 -0 0.06257193177553372 0 0 0 0 0 0 0 0 0 0 0 0 0 0 0 0 0 0 0 0 0:959 
-0 -0 -0 -0 -0 -0 -0 -0 -0 -0 -0 -0 -0 -0 -0 0 0 0 0 0 0 0 0 0.007218446565464833 0 0 0 0 0 0 0 0 0 0.05614981849845126 0 0 0:960 
-0.006662028985167746 -0 -0 -0 -0 -0.2267470279771885 -0 -0 -0.2682230210594803 -0 -0 -0.1574988473931737 -1.173296353870194 -0 -0 0 0 0 0.168558818408024 0.1813031390126058 0 0 0.08676215300002182 0 0.03499594968205778 0 0.05596654692980847 0.2049548890065118 0 0.02090034615683918 0 0 0 0 0 0 0:965 
-0 -0.00662413829956739 -0 -0 -0 -0 -0 -0 -0 -0 -0 -0 -0 -0 -0 0 0.07323751285476228 0 0 0 0.1282526685682449 0 0.01952457700784319 0 0 0 0 0 0 0 0 0 0 0 0.005995980426301536 0 0:966 
-0 -0 -0 -0 -0 -0 -0.0150598941363956 -0 -0 -0 -0 -0 -0 -0 -0 0 0 0 0 0 0 0 0 0 0 0 0 0 0 0 0 0 0 0 0 0 0:967 
-0 -0 -0 -0 -0 -0 -0 -0 -0 -0 -0 -0 -0 -0 -0 0 0 0 0 0 0 0 0 0 0 0 0 0.009480192015420906 0 0 0 0 0 0 0 0 0:968 
-0.1568869396630702 -0.05204300400379149 -0.1360760216698986 -0 -0.1346386185569861 -0 -0.2475830613180525 -0.3126417412654674 -0.1020338884328871 -0.1459534579093865 -0.138656109486881 -0.04444482163201626 -0 -0.3230631327880387 -0.09495091280909759 0 0.4506110253901884 0 0.1765241205178531 0.04673270327185871 0.01803009630879637 0 0.2580136476485639 0.2043901056922831 0.134302368424511 0 0.06836264054137901 0.1467246786484949 0.07029619940027498 0.1723200846021516 0 0.142670878667775 0 0.1930541659985597 0.1667006472823255 0.143803589123263 0:969 
-0.1243355237016541 -0 -0 -0 -0.06737801833930807 -0 -0.01198754272570139 -0 -0.687433696025905 -0 -0 -0.2014767036873001 -0 -0.05771765475677929 -0.03131114985580032 0 0.3735618492303827 0 0.06560843167229269 0 0 0.352610422385088 0 0 0.03851912103981665 0 0.03922301777118158 0 0 0 0.1675773359399834 0 0.03780938981605568 0 0 0 0:973 
-0 -0 -0 -0.02976330453950953 -0.110029547491467 -0 -0 -0 -0 -0.0417001520164712 -0 -0.06249013661293501 -0.2292216178489022 -0 -0.01355297898760561 0 0 0 0 0.002149589149190826 0.07468974860834038 0.2357956873599018 0 0.01727601136223054 0 0.1044445690319475 0.06756102012442665 0.199840282782892 0.05578978345554059 0.0172865063323734 0.1067077711729467 0.08633304824961999 0.1828093731509996 0 0.03872629656063163 0 0:976 
-0 -0.009939210387464096 -0 -0 -0 -0 -0 -0 -0 -0 -0 -0 -0 -0 -0 0 0 0 0 0 0 0 0 0 0 0 0.03030162743546645 0 0 0.004104933750615374 0 0 0 0 0 0 0:979 
-0 -0 -0 -0 -0 -0.144218531570601 -0 -0 -0 -0 -0 -0 -0.07999952717080297 -0 -0 0 0 0 0 0 0 0 0 0 0 0 0 0 0 0 0 0 0 0 0 0 0:980 
-0 -0 -0 -0 -0 -0 -0.03704388972712242 -0 -0 -0.005830940898079359 -0.07924645509040679 -0 -0 -0 -0 0 0.1378166661423105 0 0 0 0 0 0 0 0 0 0 0 0.1163245736803453 0 0 0 0 0 0 0 0:981 
-0 -0 -0 -0 -0 -0 -0 -0 -0 -0 -0 -0 -0.03421355634803486 -0 -0 1.107682231532976 0 0.4333584004780435 0 0 0 0 0 0 0 0.9279011787231879 0 0.0431111821707799 0 0 0 0 0 0 0 0 0:990 
-0.1031272884246351 -0.09176240655509738 -0 -0.002044719093025606 -0 -0 -0.1681562576478883 -0.003625591089968403 -0 -0 -0 -0.02083445126084226 -0 -0 -0.08251616832979548 0 0 0 0.01167483351170049 0 0.07622984713266683 0 0.05746595646484515 0.03506176018478455 0 0 0 0 0 0.06054961662668704 0.03677602093988297 0.02579137285803824 0 0.03827753873110941 0.04921547226552786 0.05034081086394689 0:993 
-0.006440207419883095 -0 -0.1077558714674882 -0 -0 -0 -0.2318195769530031 -0 -0.3627382365381648 -0.1406218750236061 -0.1209298963741318 -0 -0.4463871126981506 -0 -0 0 0 0.1806291091190199 0 0.02803754236497323 0 0 0 0.02413764720945116 0 0 0.1126794925491768 0 0 0 0 0 0 0.1017935174842335 0 0.0674794002355618 0:994 
-0 -0 -0 -0 -0 -0 -0 -0 -0 -0 -0 -0 -0 -0 -0 0 0 0 0 0 0 0 0 0 0 0 0 0 0.01033471995959644 0 0 0 0 0 0 0 0:996 
-0 -0.08545125533365371 -0.4081892423271832 -0.3692302497045332 -0 -0.3578031680849479 -0.08615253461355607 -0.1235821129807397 -0 -0 -0 -0 -0 -0 -0 0 0 0 0.01686746090552603 0 0 0 0 0 0.005149377534111307 0 0 0 0.1152948420072496 0 0 0 0 0 0 0.02675905238353856 0:997 
-0 -0 -0 -0 -0 -0.1457546965666979 -0 -0 -0 -0 -0 -0 -0.1563728414288606 -0 -0 0 0 0 0 0 0 0 0 0 0 0.104118670150449 0 0 0 0 0 0 0 0 0 0 0:1001 
-0 -0 -0 -0 -0 -0 -0 -0 -0 -0 -0 -0 -0 -0 -0 -1.222733692058912 0 0.1795649330548301 0 0 0 0.142891810168613 0 0 0 0.3598064559304157 0 0.5261334222721068 0 0 0.07943817686325202 0.09139651051096935 0.2519903373922258 0 0.01768296213057473 0 0:1003 
-0 -0 -0 -0 -0 -0 -0 -0 -0 -0 -0.003734891952278073 -0 -0 -0 -0 -0.6771001075166171 0 0 0 0 0 0 0 0 0 0.01557389056512614 0 0 0 0 0 0 0 0 0 0 0:1006 
-0 -0 -0 -0 -0.05690174951797522 -0 -0.02188239014643936 -0 -0.2997221299941196 -0 -0.1219368517927609 -0.2319200320162621 -0.4631022996931037 -0 -0 -0 0.07707177788017051 0.2234373555664005 0 0 0.1775711649820521 0 0.07947179049797271 0 0 0.341811645458491 0.1165733511050393 0 0 0 0 0 0 0 0 0 0:1008 
-0 -0 -0 -0 -0 -0 -0 -0 -0 -0 -0 -0 -0.05484792896563689 -0 -0 -0 0.01541223494795724 0 0 0 0 0 0 0 0 0 0 0 0 0 0 0 0.0835730997053377 0 0 0 0:1009 
-0 -0 -0 -0 -0 -0 -0 -0 -0 -0 -0.001994777454214043 -0 -0 -0 -0 -0 0 0 0 0 0 0 0 0 0 0 0 0 0 0 0 0 0 0 0 0 0:1012 
-0 -0 -0 -0 -0 -0 -0 -0 -0 -0 -0 -0 -0 -0 -0 -0 0 0.5311159340475993 0 0 0 0 0 0 0 0.3911311914666759 0 0 0 0 0.0321127352171234 0.009573630058851585 0.0007649924508878446 0 0 0 0:1013 
-0.04381269432035736 -0.001460974496377284 -0 -0 -0 -0 -0 -0 -0 -0 -0 -0 -0 -0 -0 -0 0 0 0 0 0 0 0 0 0.03118704866905793 0 0 0 0 0 0 0 0 0 0 0 0:1015 
-0.09731252944330977 -0 -0 -0 -0 -0 -0 -0 -0 -0 -0 -0 -0.3017828423485563 -0.1462940794591546 -0.2418587949270235 -0.75157751371272 0.1198192652904894 0 0 0 0 0.07877879349576875 0 0 0.1076250871599239 0 0 0 0 0 0.05606176110468909 0.05638275524783384 0 0 0 0 0:1016 
-0 -0 -0 -0 -0 -0 -0 -0 -0 -0 -0 -0 -0 -0 -0.06607705722953397 -0 0 0 0 0 0.0306609261061104 0 0.1184300907162983 0.05304367263076235 0 0.5064378696618907 0 0 0 0 0 0 0 0.07993193158956387 0.03691793650423941 0 0:1017 
-0.1057836462398043 -0.1828167080438777 -0.3758170636535259 -0.3549855053436032 -0.4755426844254101 -0.2194208573058669 -0.2190883992617346 -0.05988116485994401 -0.1256414016510588 -0.3864003949856248 -0.01917296883886046 -0.2160744827990064 -0.1174525022216662 -0.1735321559058774 -0.05175410781553458 -0.6245993793309651 0.3318012517795793 0.08037173126870227 0.3730709279369773 0.2277969350821909 0 0.1414576816146954 0.1547875251445918 0.3059807886730071 0.1240244055906552 0 0.1829720360862013 0.2585636823582465 0.4469403754182719 0.3369942620632325 0.0940990555718009 0.1375773050546723 0.1808055716660076 0.1563169684825055 0.1863205828867039 0.1412621447897672 0:1018 
-0 -0 -0 -0 -0 -0 -0.01804687385682742 -0 -0 -0.08226875195488134 -0.009477139430203398 -0 -0 -0 -0 -0 0 0 0 0 0 0 0 0 0 0 0 0 0 0 0 0 0 0 0 0 0:1020 
-0.03254178939202594 -0 -0 -0 -0 -0 -0.1514166091015615 -0.2303274086748747 -0.1623400644863382 -0 -0 -0 -0 -0 -0 -0 0 0 0 0 0.03381598853012762 0 0.1238788254603516 0 0 0 0 0.064089150281931 0 0 0 0 0.04155824725920479 0 0 0 0:1021 
-0 -0 -0 -0 -0 -0 -0 -0 -0 -0 -0 -0 -0 -0 -0 -0 0 0 0 0 0 0 0 0 0 0.4506416581405274 0 0 0 0 0 0 0 0 0 0 0:1022 
-0 -0 -0 -0 -0 -0 -0 -0 -0 -0 -0 -0 -0 -0 -0 -0 0.05242800477899742 0 0 0 0 0 0 0 0 0 0 0 0 0 0 0 0 0 0 0 0:1024 
-0 -0.07304663487856984 -0 -0 -0 -0.08266487740472346 -0 -0.08865228416425767 -0 -0 -0.1030862972391971 -0 -0 -0.02149983994901368 -0 -0 0.1296776655978599 0 0 0 0.04301868055359076 0 0 0 0 0 0 0 0 0.03207142466969801 0 0 0 0 0.07950956518658753 0.1166176522964915 0:1025 
-0.06556459915889706 -0 -0 -0 -0.02563853528598254 -0 -0.2134591537540468 -0.03556134196829798 -0.02495173092544318 -0.01769201644891533 -0.02003557596260897 -0.03602044625176636 -0.0191357933102213 -0.1038004734175255 -0 -0 0.1184004667908713 0 0 0 0.04354021914638941 0 0 0 0.06844070059243641 0 0.08891600207020015 0 0.006330396801836988 0.01114312584352769 0 0.003818569922272652 0 0.06269981428005011 0 0 0:1026 
-0 -0 -0 -0 -0.02883911882798356 -0 -0 -0 -0 -0 -0.03238077533316192 -0 -0 -0 -0 -0 0 0 0 0 0 0 0 0 0 0.009462963042460283 0 0 0 0 0 0 0 0 0 0 0:1027 
-0 -0 -0 -0 -0 -0 -0 -0 -0 -0 -0 -0 -0.008637036169986885 -0 -0 -0 0 0 0 0 0 0 0 0 0 0.1788846276800027 0 0 0 0 0 0 0 0 0 0 0:1029 
-0.01344831621179799 -0.1011283340434445 -0.2597478754086868 -0.1926915125786824 -0 -0.4621119627865006 -0 -0.05818917209387316 -0.214598902272449 -0.1917678930744659 -0.1544044039640529 -0.02035890489438352 -0.5867498470522589 -0 -0 -0.4008886157102017 0 0.401376212287755 0.05300878963830181 0.05753818272225578 0 0 0.07084879966184426 0.07946787864337856 0 0.5914581954910424 0.03244412054474955 0.1633004932348211 0.2609814679125373 0 0 0 0.0296087746943733 0.05667409614387642 0.03345918449657197 0.1001147983730921 0:1030 
-0 -0 -0 -0 -0 -0 -0 -0 -0 -0 -0 -0 -0 -0 -0 -1.132175932521207 0 0 0 0 0 0 0 0 0 0 0 0 0 0 0 0 0.02408705223470954 0 0 0 0:1031 
-0 -0 -0 -0 -0 -0 -0 -0 -0 -0 -0 -0 -0 -0 -0 -0 0 0.2737619419430627 0 0 0 0 0 0 0 1.293905175041624 0 0.1237996441256898 0.2111084696047907 0 0 0 0 0 0 0 0:1033 
-0 -0 -0 -0 -0 -0 -0 -0 -0 -0 -0 -0 -0 -0 -0 -0 -0 0 0 0 0 0 0 0 0 0 0.03608368714697556 0 0 0 0 0 0 0 0 0 0:1037 
-0.08183935829409646 -0.2097116799117255 -0.3881402177547722 -0.3747110049809826 -0.2153012669879318 -0.3744140163566112 -0.6993376781201762 -0.1906496053021442 -0.4415184811092439 -0.2640994769926325 -0.5739296516491288 -0 -0.3150179954351195 -0.5330748087572776 -0 -0.4408183489485008 -0.146217598729385 0 0.04207369017154566 0.1207281659304515 0.1167119254690256 0 0.04279406263431849 0.05953233584693647 0.08900490313532926 0.05400542936088364 0.04599841191798151 0.1112335274473133 0.6463887690673555 0 0 0 0.05706895231920018 0.1089045856910685 0.001089739392375635 0.2559052249661082 0:1038 
-0 -0.1443040929573569 -0.1056867844673805 -0.3536083043081488 -0.5405661654188593 -0 -0.4056761840685796 -0.07262784197328437 -0.09899854733160134 -0.1394792343378598 -0.1523067856493439 -0.396417336419043 -0.1158525180548 -0 -0 -0 -0.01477470254881936 0.02074369764757692 0.07287609440286874 0.04349671083332564 0.05587246174081874 0 0.02416178940416178 0.04405212039581188 0.009774368309757689 0.1234700225875831 0.4459857988418098 0.0736599238595026 0.01642378471619297 0.1096188100017017 0 0.01970181052938255 0 0.04061112268359383 0.04529147600987916 0.0111105153780234 0:1039 
-0.326355549093205 -0.02259026815790464 -0.07463845325945444 -0 -0.1296155809070691 -0.1927355144595323 -0 -0.1123456698402019 -0.4344437848419917 -0.2041621005868669 -0 -0.283742042994685 -0.4881306301620797 -0.2908850641824393 -0.2666980105802933 -0.5751961605800117 -0.5516294548691625 0.5170153420740394 0.2120841688892699 0.08267088475889357 0.1689464183960938 0.3028339116635637 0.2911303419530871 0.2568806833262012 0.221055432846365 0.4464513334750647 0.3361416411301529 0.3971768481906606 0.2725873152707334 0.1220225661386369 0.2961797551726296 0.2756096892556757 0.4652198062805576 0.2063623528815572 0.2143958072495649 0.1122067651069685 0:1040 
-0 -0 -0 -0 -0 -0 -0 -0 -0 -0 -0 -0 -0.03402781278831255 -0 -0 -0.1959475306281494 -0.1319889109185584 0 0 0 0 0 0 0 0 0.006664086493801038 0 0 0 0 0 0 0 0 0 0 0:1041 
-0.2886953851997869 -0 -0 -0 -0 -0 -0 -0 -0 -0 -0 -0 -0 -0.5086589767521972 -0.260946281455277 -0 -0 0 0.09650396468221023 0.04698386467346913 0 0.190078043020796 0.1808145417384747 0.07829452265701542 0.3674020946373255 0 0 0 0 0.1126617945444235 0.07137388839235208 0.06567345424740199 0 0 0.05034144073496316 0 0:1042 
-0.07072929156430267 -0 -0 -0 -0 -0 -0 -0 -0 -0 -0 -0.1066895786919531 -0 -0.2162688949823097 -0.05292787494445086 -0 -0 -0.04249600335979471 0.1100002157238105 0.03601359138240316 0 0.1616409971091291 0.294511292927063 0.07369451778158818 0.07819488565639766 0 0.01420861826013894 0.2262342699771651 0 0.06396811219239429 0 0 0.6949023776723569 0 0 0 0:1044 
-0 -0 -0 -0 -0 -0 -0 -0 -0 -0 -0 -0 -0 -0 -0 -0 -0 -0 0 0 0.0251084747942576 0.1448256021117925 0.131514243367636 0 0 0 0 0 0 0 0.04265050433820284 0.3599851992249178 0 0 0.04456170865083355 0 0:1045 
-0 -0 -0 -0 -0 -0 -0 -0 -0 -0 -0 -0 -0 -0 -0 -0.04354387194676252 -0 -0 0 0 0 0 0 0 0 0 0 0 0 0 0 0 0 0 0 0 0:1046 
-0 -0 -0 -0 -0 -0 -0 -0 -0 -0 -0 -0 -0 -0 -0 -0 -0 -0 0 0 0 0 0 0 0 0.6301567595438734 0 0 0 0 0 0 0 0 0 0 0:1051 
-0 -0 -0 -0 -0 -0 -0 -0 -0 -0 -0 -0 -0.1191663993642057 -0 -0 -0 -0.2020225134015203 -0 0 0 0 0 0 0 0 0 0 0 0 0 0 0 0 0 0 0 0:1052 
-0 -0 -0.1448091452270085 -0.07280525711366635 -0.06279254835203374 -0 -0 -0 -0.04143098092831619 -0 -0 -0 -0 -0 -0 -0 -0 -0.09037979372354465 0 0 0 0 0 0 0 0 0 0 0.0635389989336541 0 0 0 0 0.02000992761110285 0 0.1151956477998473 0:1058 
